tree
version=v4
num_class=1
num_tree_per_iteration=1
label_index=0
max_feature_idx=830
objective=binary sigmoid:1
feature_names=Column_0 Column_1 Column_2 Column_3 Column_4 Column_5 Column_6 Column_7 Column_8 Column_9 Column_10 Column_11 Column_12 Column_13 Column_14 Column_15 Column_16 Column_17 Column_18 Column_19 Column_20 Column_21 Column_22 Column_23 Column_24 Column_25 Column_26 Column_27 Column_28 Column_29 Column_30 Column_31 Column_32 Column_33 Column_34 Column_35 Column_36 Column_37 Column_38 Column_39 Column_40 Column_41 Column_42 Column_43 Column_44 Column_45 Column_46 Column_47 Column_48 Column_49 Column_50 Column_51 Column_52 Column_53 Column_54 Column_55 Column_56 Column_57 Column_58 Column_59 Column_60 Column_61 Column_62 Column_63 Column_64 Column_65 Column_66 Column_67 Column_68 Column_69 Column_70 Column_71 Column_72 Column_73 Column_74 Column_75 Column_76 Column_77 Column_78 Column_79 Column_80 Column_81 Column_82 Column_83 Column_84 Column_85 Column_86 Column_87 Column_88 Column_89 Column_90 Column_91 Column_92 Column_93 Column_94 Column_95 Column_96 Column_97 Column_98 Column_99 Column_100 Column_101 Column_102 Column_103 Column_104 Column_105 Column_106 Column_107 Column_108 Column_109 Column_110 Column_111 Column_112 Column_113 Column_114 Column_115 Column_116 Column_117 Column_118 Column_119 Column_120 Column_121 Column_122 Column_123 Column_124 Column_125 Column_126 Column_127 Column_128 Column_129 Column_130 Column_131 Column_132 Column_133 Column_134 Column_135 Column_136 Column_137 Column_138 Column_139 Column_140 Column_141 Column_142 Column_143 Column_144 Column_145 Column_146 Column_147 Column_148 Column_149 Column_150 Column_151 Column_152 Column_153 Column_154 Column_155 Column_156 Column_157 Column_158 Column_159 Column_160 Column_161 Column_162 Column_163 Column_164 Column_165 Column_166 Column_167 Column_168 Column_169 Column_170 Column_171 Column_172 Column_173 Column_174 Column_175 Column_176 Column_177 Column_178 Column_179 Column_180 Column_181 Column_182 Column_183 Column_184 Column_185 Column_186 Column_187 Column_188 Column_189 Column_190 Column_191 Column_192 Column_193 Column_194 Column_195 Column_196 Column_197 Column_198 Column_199 Column_200 Column_201 Column_202 Column_203 Column_204 Column_205 Column_206 Column_207 Column_208 Column_209 Column_210 Column_211 Column_212 Column_213 Column_214 Column_215 Column_216 Column_217 Column_218 Column_219 Column_220 Column_221 Column_222 Column_223 Column_224 Column_225 Column_226 Column_227 Column_228 Column_229 Column_230 Column_231 Column_232 Column_233 Column_234 Column_235 Column_236 Column_237 Column_238 Column_239 Column_240 Column_241 Column_242 Column_243 Column_244 Column_245 Column_246 Column_247 Column_248 Column_249 Column_250 Column_251 Column_252 Column_253 Column_254 Column_255 Column_256 Column_257 Column_258 Column_259 Column_260 Column_261 Column_262 Column_263 Column_264 Column_265 Column_266 Column_267 Column_268 Column_269 Column_270 Column_271 Column_272 Column_273 Column_274 Column_275 Column_276 Column_277 Column_278 Column_279 Column_280 Column_281 Column_282 Column_283 Column_284 Column_285 Column_286 Column_287 Column_288 Column_289 Column_290 Column_291 Column_292 Column_293 Column_294 Column_295 Column_296 Column_297 Column_298 Column_299 Column_300 Column_301 Column_302 Column_303 Column_304 Column_305 Column_306 Column_307 Column_308 Column_309 Column_310 Column_311 Column_312 Column_313 Column_314 Column_315 Column_316 Column_317 Column_318 Column_319 Column_320 Column_321 Column_322 Column_323 Column_324 Column_325 Column_326 Column_327 Column_328 Column_329 Column_330 Column_331 Column_332 Column_333 Column_334 Column_335 Column_336 Column_337 Column_338 Column_339 Column_340 Column_341 Column_342 Column_343 Column_344 Column_345 Column_346 Column_347 Column_348 Column_349 Column_350 Column_351 Column_352 Column_353 Column_354 Column_355 Column_356 Column_357 Column_358 Column_359 Column_360 Column_361 Column_362 Column_363 Column_364 Column_365 Column_366 Column_367 Column_368 Column_369 Column_370 Column_371 Column_372 Column_373 Column_374 Column_375 Column_376 Column_377 Column_378 Column_379 Column_380 Column_381 Column_382 Column_383 Column_384 Column_385 Column_386 Column_387 Column_388 Column_389 Column_390 Column_391 Column_392 Column_393 Column_394 Column_395 Column_396 Column_397 Column_398 Column_399 Column_400 Column_401 Column_402 Column_403 Column_404 Column_405 Column_406 Column_407 Column_408 Column_409 Column_410 Column_411 Column_412 Column_413 Column_414 Column_415 Column_416 Column_417 Column_418 Column_419 Column_420 Column_421 Column_422 Column_423 Column_424 Column_425 Column_426 Column_427 Column_428 Column_429 Column_430 Column_431 Column_432 Column_433 Column_434 Column_435 Column_436 Column_437 Column_438 Column_439 Column_440 Column_441 Column_442 Column_443 Column_444 Column_445 Column_446 Column_447 Column_448 Column_449 Column_450 Column_451 Column_452 Column_453 Column_454 Column_455 Column_456 Column_457 Column_458 Column_459 Column_460 Column_461 Column_462 Column_463 Column_464 Column_465 Column_466 Column_467 Column_468 Column_469 Column_470 Column_471 Column_472 Column_473 Column_474 Column_475 Column_476 Column_477 Column_478 Column_479 Column_480 Column_481 Column_482 Column_483 Column_484 Column_485 Column_486 Column_487 Column_488 Column_489 Column_490 Column_491 Column_492 Column_493 Column_494 Column_495 Column_496 Column_497 Column_498 Column_499 Column_500 Column_501 Column_502 Column_503 Column_504 Column_505 Column_506 Column_507 Column_508 Column_509 Column_510 Column_511 Column_512 Column_513 Column_514 Column_515 Column_516 Column_517 Column_518 Column_519 Column_520 Column_521 Column_522 Column_523 Column_524 Column_525 Column_526 Column_527 Column_528 Column_529 Column_530 Column_531 Column_532 Column_533 Column_534 Column_535 Column_536 Column_537 Column_538 Column_539 Column_540 Column_541 Column_542 Column_543 Column_544 Column_545 Column_546 Column_547 Column_548 Column_549 Column_550 Column_551 Column_552 Column_553 Column_554 Column_555 Column_556 Column_557 Column_558 Column_559 Column_560 Column_561 Column_562 Column_563 Column_564 Column_565 Column_566 Column_567 Column_568 Column_569 Column_570 Column_571 Column_572 Column_573 Column_574 Column_575 Column_576 Column_577 Column_578 Column_579 Column_580 Column_581 Column_582 Column_583 Column_584 Column_585 Column_586 Column_587 Column_588 Column_589 Column_590 Column_591 Column_592 Column_593 Column_594 Column_595 Column_596 Column_597 Column_598 Column_599 Column_600 Column_601 Column_602 Column_603 Column_604 Column_605 Column_606 Column_607 Column_608 Column_609 Column_610 Column_611 Column_612 Column_613 Column_614 Column_615 Column_616 Column_617 Column_618 Column_619 Column_620 Column_621 Column_622 Column_623 Column_624 Column_625 Column_626 Column_627 Column_628 Column_629 Column_630 Column_631 Column_632 Column_633 Column_634 Column_635 Column_636 Column_637 Column_638 Column_639 Column_640 Column_641 Column_642 Column_643 Column_644 Column_645 Column_646 Column_647 Column_648 Column_649 Column_650 Column_651 Column_652 Column_653 Column_654 Column_655 Column_656 Column_657 Column_658 Column_659 Column_660 Column_661 Column_662 Column_663 Column_664 Column_665 Column_666 Column_667 Column_668 Column_669 Column_670 Column_671 Column_672 Column_673 Column_674 Column_675 Column_676 Column_677 Column_678 Column_679 Column_680 Column_681 Column_682 Column_683 Column_684 Column_685 Column_686 Column_687 Column_688 Column_689 Column_690 Column_691 Column_692 Column_693 Column_694 Column_695 Column_696 Column_697 Column_698 Column_699 Column_700 Column_701 Column_702 Column_703 Column_704 Column_705 Column_706 Column_707 Column_708 Column_709 Column_710 Column_711 Column_712 Column_713 Column_714 Column_715 Column_716 Column_717 Column_718 Column_719 Column_720 Column_721 Column_722 Column_723 Column_724 Column_725 Column_726 Column_727 Column_728 Column_729 Column_730 Column_731 Column_732 Column_733 Column_734 Column_735 Column_736 Column_737 Column_738 Column_739 Column_740 Column_741 Column_742 Column_743 Column_744 Column_745 Column_746 Column_747 Column_748 Column_749 Column_750 Column_751 Column_752 Column_753 Column_754 Column_755 Column_756 Column_757 Column_758 Column_759 Column_760 Column_761 Column_762 Column_763 Column_764 Column_765 Column_766 Column_767 Column_768 Column_769 Column_770 Column_771 Column_772 Column_773 Column_774 Column_775 Column_776 Column_777 Column_778 Column_779 Column_780 Column_781 Column_782 Column_783 Column_784 Column_785 Column_786 Column_787 Column_788 Column_789 Column_790 Column_791 Column_792 Column_793 Column_794 Column_795 Column_796 Column_797 Column_798 Column_799 Column_800 Column_801 Column_802 Column_803 Column_804 Column_805 Column_806 Column_807 Column_808 Column_809 Column_810 Column_811 Column_812 Column_813 Column_814 Column_815 Column_816 Column_817 Column_818 Column_819 Column_820 Column_821 Column_822 Column_823 Column_824 Column_825 Column_826 Column_827 Column_828 Column_829 Column_830
feature_infos=[-1.740919160791998:5.2459426985548152] [-7.7190075869613572:1.96965812638965] [-2.8928243206817106:3.3886407345775078] [-2.5475282532740997:4.9297463525410432] [-2.5670899855524705:2.6966000112770656] [-2.6324030244008645:6.4425635073117569] [-4.4700745939648732:2.133763716802715] [-1.9502866085898527:5.5716896868129711] [-4.1092082842514523:4.3627786661967294] [-2.3533364478098915:3.1829158467396779] [-7.1845238698615184:2.4551287473394883] [-2.5232970060381548:3.2701907156413079] [-4.0090435173716434:1.855772025127943] [-2.6690178031308882:6.4302765841777818] [-2.8356279796400297:1.9375937436446635] [-3.5423777950026718:4.6177392601335487] [-2.3758605830976367:1.9194743361649347] [-2.1782750945047153:3.3277469898500134] [-3.4568470394607407:2.9491957024438249] [-2.8025205700004596:3.6479803297873201] [-3.2889979447849012:2.1515343430545628] [-5.0245870502321273:1.78511968675792] [-3.302868259214268:2.1472589376544593] [-2.4511076021828928:4.2331595545051632] [-1.8592476924806562:4.158846017342805] [-2.2994947553549743:7.6501115185037802] [-3.3273960068212958:3.1239912425441285] [-2.3957821674724138:4.589542271642852] [-5.3612188053165601:2.1872066335552054] [-3.5554058824877233:3.6975872066267397] [-2.8967250406515905:2.1207475988682316] [-2.7186824723317962:2.4139092956001207] [-4.7795565997021514:1.8760159747912037] [-5.7674495721181565:2.3654445455988307] [-4.0092032025952626:5.9251271843837783] [-2.5789908221570559:2.6568035569281863] [-2.4111864849872502:4.5569559565185216] [-2.1116567203799654:4.6955195388740716] [-2.0024348781887999:4.5833673401741093] [-4.1266170076632323:2.2669462857061138] [-2.6764726377119392:3.5649432859582575] [-2.2858308357405894:6.5982752839532139] [-3.2124818266474859:1.6433717711060647] [-2.3925236671829415:3.5336071200658843] [-3.7386414909168493:2.391793197912031] [-6.0961312923143272:1.9032330094860805] [-1.7667268521432458:4.7854691146601755] [-3.0604618982307348:3.3514564706545555] [-3.9940609906758189:1.8803094842720789] [-2.153328977961638:2.6753133750625335] [-2.3362185635546147:2.7799633653552935] [-3.7404824213275178:2.6855239098331034] [-3.0085379244357826:2.6570361537354086] [-1.5044945342284382:4.6276208687800091] [-4.8376753522103009:1.8201495718517111] [-3.9003462511064928:2.487577665492839] [-3.1293490172493725:2.4021521772438912] [-5.623827508067321:2.5144944105483469] [-2.7873192961468036:3.0142040042162277] [-1.9364074244771767:3.3463791040919921] [-2.7584984944811168:3.3097694331595] [-5.7140765060853234:2.7072517535429395] [-4.4948690810500853:2.2539686826365992] [-5.8660902023689951:1.9131664690043455] [-5.2111603527644972:1.6550273287295243] [-1.8829405295344437:3.7234035777428143] [-4.1787532802698495:1.7305814159796382] [-3.1065253352203457:2.4321477321201392] [-5.1462403795292513:1.9094646486728273] [-2.8062610527337721:3.59460163976836] [-2.5046855321703725:3.2614925284917611] [-3.3270030363143173:2.8882430453591215] [-4.3446497924364165:1.9030136195547496] [-2.3039726817473571:2.2913077473856305] [-2.1651038695799181:4.6539379373345655] [-3.2336928151805511:3.1083891977332301] [-3.7337426302474856:4.467747053519699] [-2.0953608911930997:3.8675205181114385] [-3.4866282818863081:2.939909912856125] [-3.00045032689665:2.4641331135348303] [-2.3506829843787034:2.6286335112057602] [-4.5237003049107205:1.7991672652676751] [-6.3384377997735424:1.6967201038576551] [-2.5326500839058692:7.6287897287932322] [-5.0028649510100838:1.359792221280941] [-3.4628181223929757:1.9161777645332718] [-2.7509454634137493:2.5982603847674652] [-3.272226570936545:3.1075254593892452] [-5.795611286021658:3.3673128577421485] [-3.2601343328731356:2.4302730995997806] [-2.2329192884268547:6.6171443602332491] [-4.6247908365514965:2.4920672438322282] [-2.7871702780415459:2.4481909481108852] [-5.8212093103165614:2.7328066494963972] [-2.5164716765086008:2.7278861090764321] [-2.8196900462944643:2.5780037074503017] [-3.1476956585027223:2.6154684632373004] [-6.0825982588226646:1.9902137818677186] [-3.2046243771509411:2.2755575704135955] [-2.1800391793025482:2.4777145748355416] [-2.432877241254721:3.0384195990633422] [-3.6355829063410265:3.3019779182204743] [-2.5355178229923081:3.9881101442242448] [-5.8005227755194175:2.083650450748229] [-3.8565917767019524:2.9523657908380967] [-5.1036036388489165:1.3894047373719689] [-3.0284679774075696:2.671173121408867] [-5.9942974453064286:2.4244060624341937] [-2.2662647704290704:3.149179481932864] [-1.6744897529765841:4.0579233541976016] [-1.9514992211513749:4.7987366583111175] [-2.3826453229967948:7.854930364046159] [-2.2831096724265572:5.4586787311806226] [-4.518259450783769:1.903406256764324] [-2.587865702199343:4.1402221916401443] [-4.3407349342789203:4.4213653266298296] [-2.632907681484252:1.9685540731588418] [-4.1871272710647736:2.8972122569031211] [-7.1375247143284337:1.9593489884334689] [-2.08640960310038:3.4460897972825699] [-1.6469260210691972:7.374668432425338] [-4.8338203041930949:2.8733281923682417] [-1.4791488199019867:8.6317619493772995] [-1.9419885835585098:5.1906073357830973] [-2.4176405467531761:4.3017226664263042] [-4.8670097235631173:2.3831616424982682] [-4.5131589529060978:1.853300225058123] [-2.8711798893526477:2.6952179596401225] [-3.069773263299389:3.2626083765925822] [-4.8867399073315418:6.3441262588828353] [-2.3210928109124151:3.2445768679603311] [-5.6604740891806316:1.9669436386278893] [-5.0554837953000353:2.1081092694690842] [-6.3047252645187299:2.825599275604632] [-5.5660620611801486:2.428967848562626] [-2.0430143061719543:3.9809295395940159] [-2.4976648933815029:2.7612015744188101] [-4.2137286312601887:2.2649310724206306] [-2.7104813018420879:2.1903283500828987] [-6.7972538570222323:2.5894628195116907] [-2.9947952988680764:2.579839394678574] [-2.5650063607027631:3.1301249224069405] [-3.9617570136257227:3.4628730413065276] [-2.0890583873605055:2.6900592469982971] [-2.1183278963233243:2.651099550229111] [-3.5648557844588371:3.426801361137354] [-2.8218873012509533:1.9584801904146159] [-2.0543758423913494:3.7006901383716371] [-4.5949625251132842:1.8121144083691012] [-3.3549992118533569:3.1539961273285959] [-3.048059631110791:4.5695860068364595] [-2.0552357854134389:4.8512620649931364] [-2.8591352312204568:2.4672192867948293] [-3.2501830046820643:3.4833610196652485] [-4.1592651100120497:2.2210176889697513] [-2.5066642972929509:5.3493325463242458] [-3.9993005791466798:2.1296438072655968] [-3.2865433681089371:1.7983329393516225] [-2.5778408688395751:4.4005879801971073] [-3.2472118839667052:4.2263387134706463] [-4.6099621235452544:3.3910555859871931] [-5.2953899226360654:2.0807501089531675] [-4.5069350277109121:2.9332583642353796] [-1.7299019510205078:3.7543548689687394] [-2.4313869419139018:2.7656019910520295] [-1.8076646035359591:5.2335031946238475] [-2.1443641544831875:2.5154226425712607] [-2.3645707384031933:6.3197424468978811] [-2.0348096935490458:5.5610408802482398] [-2.4189344040426848:4.3342996887625418] [-1.8940420261375523:2.6733973658381283] [-2.4549565579074031:3.8002683419915675] [-4.3233825607456939:3.3053589423031617] [-3.3111345118606748:2.7868733927055827] [-5.7020381166082954:2.3637041713183353] [-1.7633399917990389:3.447494265435664] [-2.4084764975858435:3.4058967044369672] [-1.9617908880484249:3.3838390498026918] [-2.4152849487067636:2.6876606858322969] [-3.7944892834036001:3.7571121509920342] [-1.9964174043707978:2.6597394755657886] [-5.1848284717976956:1.8600097547630747] [-4.2632883786332103:2.5422283423063461] [-2.3425673009810359:2.9278280971497197] [-4.5581288053543378:2.4031945303010076] [-2.6158009416884234:3.8425183830220515] [-5.581049140969041:2.3620067000480329] [-2.8287650540637888:3.5865186915445877] [-4.6380237015817585:3.2266829501025418] [-6.815660401752508:2.5438256697081765] [-2.0913340661219975:5.1811117242861817] [-5.4699615109670114:3.1089796464515378] [-3.5319378799233765:2.0872894777873867] [-3.2631495348655335:2.5633398687235145] [-2.1005250720975055:2.7881004627783694] [-1.7295475496264965:2.4544714545746626] [-2.3478506003349295:1.9400958802220596] [-2.8675578195344307:3.4841780697763118] [-5.7215671358933688:2.0904928192116632] [-4.7531652888816813:1.8608625534194183] [-2.9989445771327996:3.5488842838986026] [-3.0497325040414487:5.3951563320400266] [-4.9824885557840242:1.9644506723190875] [-3.4864380513992455:2.1444862806495371] [-2.5359974824316605:3.2815796389307019] [-7.208704477580012:1.9365229308283567] [-6.9835434446919296:4.2154150959491057] [-5.9816157507494143:4.1413941362779125] [-3.1446356378215827:2.4470701424061625] [-3.9244499601234826:2.3181605536282635] [-5.0478340430777608:2.6338770154010325] [-4.3669570509412488:3.0428484822779724] [-2.3739367288529527:5.3790916553598578] [-4.5970624076128841:3.1258696981543523] [-2.2688426768011651:2.8134516089441881] [-3.2205839167833186:1.9737693161073961] [-2.9904048752525028:3.2537743270891157] [-2.9314983047598075:5.4310379911003297] [-2.5342110594819744:3.2304831787194259] [-3.6174890497905197:5.0489906573942189] [-2.3875846535755008:2.4787288675902079] [-2.3079132749131532:1.907470960118623] [-1.8052744116414443:3.6774431300103791] [-3.1784897984085601:3.2936521437355784] [-4.4932817348228182:2.2581330382751861] [-3.6375954818977707:4.9494183603069137] [-3.0363326464774101:4.2085303123789464] [-5.1636498796781414:2.4812006265991222] [-1.5339457524226949:5.792746395901565] [-2.3775793423193305:2.909262417950147] [-4.6683493616269383:2.5427805960483938] [-5.1571170248011073:2.083173186562814] [-3.2505288447908751:2.3443580895159744] [-2.3914909421988781:2.8205292084378613] [-2.0922182063335417:3.8359381088914835] [-1.8513995868561655:4.4369193989782749] [-2.3125564824217451:3.6407753201379989] [-2.8274155645895669:3.7861337544902534] [-2.4458141921676959:2.3802824515986205] [-3.7777460312106004:3.2414536893582198] [-3.3549960192099779:1.8360400980873595] [-4.5098238940233131:1.8418266194826862] [-5.7245364440729425:2.6824724026115412] [-2.2425518805133513:2.9691231639430486] [-3.1685916116672086:2.5017008703159034] [-2.6436333399982481:4.0700215436934002] [-2.1624569817553931:2.9123706015718152] [-4.6958994135331444:2.3562872081299555] [-6.5095083632175976:1.991053016060135] [-3.7727959131075135:2.4734246950507406] [-2.8380176839289497:2.2792758025723003] [-3.3668604828092641:4.3680604056057142] [-2.0514298282734789:3.8509403910107487] [-5.1278607335584505:2.5350439634604918] [-2.8230686160333729:4.5547325157128373] [-2.0226766449750699:6.1892787426559837] [-4.724052898345553:2.3386790971077329] [-4.3301168965189492:3.9035824453446106] [-2.6134783852370314:5.0654311205230513] [-2.8970897316079163:2.7059507157874743] [-3.1007655918632695:2.0696709977661647] [-2.2287470374959955:3.4916936641873724] [-3.3790172517473911:2.1341794263113099] [-3.6030671838685957:2.485940139923394] [-1.739724881510069:5.7420466861070709] [-3.869662373155109:1.7834212404633845] [-2.2931791451575321:3.1070452151781063] [-1.8605823040537204:4.9948186671951902] [-2.8848250721219424:2.7926494104202257] [-4.8221851853448721:2.0724472455813561] [-5.9370436129454003:2.2170235937883587] [-3.0145696653951588:7.2947311708442522] [-1.7147059980573978:5.6374822969039808] [-4.8657766286991553:1.7894194570373283] [-3.8146127295021746:3.3581303950140842] [-2.0699154543902152:6.9098734370887689] [-2.898342873320209:2.0730321227365245] [-3.2410308932255347:3.0207312423777783] [-2.0248640064916712:4.1372209244971021] [-3.0128463721890508:2.732540411269277] [-2.3550753146860774:3.6543546045917963] [-4.2235928855235771:2.371758160316821] [-1.3057899559715109:6.4214612185066064] [-3.0638884252377987:4.9496944724997967] [-2.16303137374133:3.1848072102060825] [-5.1650773777028789:1.7887791530370605] [-2.136022211853005:3.1861411667496564] [-5.1533744402696184:1.9106590244392279] [-2.1472134175786746:3.075709007820365] [-2.7617371797656061:1.9318921265464528] [-3.1737851141896534:2.9630737629938961] [-2.0694109237540745:3.7037270556724895] [-3.7166354099522261:3.4845191306038705] [-5.9231959542622246:2.1108316610877109] [-3.1952776936593201:2.8712520280004408] [-4.3821641491261376:4.1659236472478076] [-3.0560004234324185:2.4531272356925373] [-2.0423590850238322:3.5829586986410611] [-2.0750469548102259:2.9157787282437937] [-3.1712843355266949:3.4982416681060169] [-2.1753871684106216:2.7813479617247396] [-4.6787432711153016:2.6835963409565147] [-3.8750669824782786:3.243227336716326] [-3.1140825376015551:2.39223963420286] [-2.3035028448960131:5.1283097503963821] [-2.8013851309580731:5.0001266656544274] [-2.4996227616810169:3.9536064679228335] [-2.1971354762232256:4.0538878402155554] [-3.814591795031983:2.2638028776039154] [-2.772921465916526:3.7583826648230989] [-2.4060200576910016:7.3679461531846888] [-4.0502163086399348:3.0199620796048023] [-2.8492668526297349:2.9573714879559758] [-2.1375303698825783:5.0100603516133955] [-2.1329185374283699:2.9070442120263267] [-2.1351816282166021:4.7580420589635688] [-6.72893550827804:2.9871677947565045] [-3.087119569187708:2.9453530712723794] [-1.8442724468774421:2.4543447957144489] [-3.826826461756113:2.8640899042439352] [-3.2043849296514062:3.0253780433001642] [-2.0176168343909464:3.0315395269592131] [-3.7939337834902114:3.0373456294699808] [-2.4906488251801182:2.4725493031829746] [-2.1106868862664885:2.6392308277501839] [-2.4888940688826811:3.1949487735128597] [-3.2312932935131067:2.94379508127526] [-3.1747126070035803:3.5525745736094545] [-4.2606351415639097:3.2025972854145279] [-4.5270070645712277:1.6307142152470449] [-1.9792084808843498:4.0167985229415377] [-7.1069669628237344:4.142025657352197] [-2.2556204176849795:6.1211363561832961] [-2.6627973634870457:4.0380945763914244] [-2.6266860117213509:2.1234047191369667] [-4.2505071178020701:2.4021405611393893] [-3.6289277138903735:1.73811267093264] [-1.4034099178659483:5.8384648241548378] [-2.7126416993109892:5.6043106748856042] [-2.5356622679144865:3.125011338898974] [-2.637834157909698:6.6064915117805461] [-2.1322442498888288:3.9211818637634623] [-5.0315980440205443:3.2538700427726828] [-5.1316897187056885:1.7882162346210697] [-2.5278279932155123:3.1448893908840283] [-1.7022274001710096:6.7118862574597031] [-4.2080116645065297:2.5874578848098597] [-2.9946287531670426:2.1984953976610586] [-5.3256480423832198:2.5250982560458786] [-2.3822605896732014:2.253162330145579] [-3.3107234462763215:4.0706924243918161] [-4.8991718989216482:2.6520054538302662] [-2.1055903809402658:3.3003631680813057] [-3.4522103800244635:2.8288567660729571] [-2.9924288048866066:3.8335102100247052] [-4.7703532799634853:3.3551430828660109] [-4.91475223811738:2.1943935911232182] [-4.8052599077857021:1.6338556612764352] [-5.9927171480851236:2.676826583558948] [-2.70215016212433:2.9026355567870716] [-1.8286932814612569:5.0556274523551261] [-2.8519239950925703:2.6192267731713375] [-3.6601102867727162:2.4292440995520415] [-3.2912275452606856:3.1724324138792639] [-2.8588585189696887:2.2586955217943387] [-3.863712499790251:1.9935584280199323] [-1.9603856247968168:3.9247463636026181] [-3.5122643151660244:2.6058760807779944] [-2.5917308642586665:2.6801386001662837] [-3.924172073766647:2.4601352182983076] [-2.5491064541767865:1.9564964894415073] [-2.6535423980467208:2.699363766778117] [-1.4888931161531689:9.1199792044211296] [-2.7374332728150041:2.4033310663296366] [-2.3122394830635495:3.9767337547353048] [-3.5228920267810384:2.2941260958941481] [-3.0260613135882113:2.870761592067272] [-2.2706879390382055:2.4232732830864738] [-1.9726252229556982:4.6362662849663181] [-3.2991517891380386:2.3521596791959243] [-3.5910046193435683:2.0226037259005847] [-1.7931494420621101:8.321931014762562] [-3.293760263655293:2.1882999935875884] [-2.1313444725429211:3.5768711305282128] [-4.6315997545206402:2.4396651482145089] [-1.8143980624579628:3.7673992878933698] [-2.3774244282939505:3.0823247077689997] [-2.1229084598545649:4.4719085986199589] [-3.5655946621327956:1.8374744462342039] [-2.3394935157968644:5.8187121229908838] [-2.3033877422779891:4.2832701473925541] [-2.0853041902612639:3.5341556834441996] [-7.3212271465117125:2.2952074529292736] [-2.1800702361690134:4.034897857188855] [-4.3779889079718641:1.5998839813385932] [-4.2062258640006505:3.981506206247158] [-4.7250460984086917:2.1668985485140508] [-1.9275177925830815:5.8028445367949457] [-2.9805947576277765:3.9960687485209498] [-3.9149937489410385:2.5080299138225008] [-1.9150473361527296:3.8719228338384744] [-3.7239603095205367:3.1176209223590678] [-4.4638732457551331:3.7553901856013434] [-1.7690383834747674:5.8525263360593875] [-2.8303188335659857:5.0067945222411536] [-5.2597777208795735:2.4377736671745303] [-4.1902902992416147:6.4637733004877003] [-4.8234067305291388:1.8662501915357601] [-2.1190274660348027:3.2894292233696043] [-3.1152745168168448:3.6726647446298704] [-3.7590136763097024:3.502426696980546] [-2.1825446910202633:2.9243355735250236] [-2.2527994681306449:3.2753707393194627] [-3.938795697553656:2.4104606760445808] [-3.1481041143097053:3.2939936500070686] [-2.319678498341645:3.6555809026065855] [-5.3342124494994803:2.5666933878218554] [-2.3352774369252853:2.9556656394569583] [-3.1961373493543013:3.3249407819505543] [-3.8040035581647862:2.6986583409087328] [-2.3215366735665297:4.8891388348242728] [-2.3921569897179626:5.2743472749179814] [-3.1111495563268403:3.703040581805559] [-2.0066617329845902:5.1622196587176967] [-7.674524185008206:2.1198199330201248] [-3.818462487839954:2.2751849277593581] [-1.9197204291627596:5.2728089965433327] [-2.2417172287677016:3.2887663697639042] [-3.1416408895375638:4.3415196894439489] [-2.8038861135817013:2.8180137529386684] [-3.9294192484420694:4.9883312699605549] [-3.2216488708642914:2.0857612200774285] [-7.0427647243255604:3.1526532624411536] [-4.6875322931789176:2.3046178695635806] [-4.9573272098651548:2.4632156228602242] [-2.9201482699556958:2.0211512392108486] [-2.9515712380009065:3.7037186495929828] [-2.4147766490609666:6.7672359383083895] [-3.5170240650473472:2.0308509601554028] [-5.6857291914173338:2.6934587547597393] [-2.2985464668066511:3.1171503557671136] [-2.9195708854422855:2.2015417851882884] [-3.4442001713714796:2.5108937907082538] [-2.4968693566963656:3.5849744870692639] [-3.31580105457481:2.2422966174599988] [-2.5159959520198796:4.8599051180649244] [-2.7339369610551501:2.7422813821177359] [-2.0430949691146254:2.9711475877320788] [-2.1366019825564724:4.7636547415454231] [-3.7194963025773169:4.0259923653238481] [-1.7810493756707859:8.7752332951567773] [-2.4279466980904205:5.1168972705828564] [-2.2644633570058001:3.3260893067797976] [-3.4088898635652436:2.7711687653150414] [-2.8583574798616835:2.1731846780076634] [-5.7143980151471823:1.4711451642682716] [-1.8556521503147296:3.400886318282053] [-2.7777181386090422:2.7495468971002182] [-2.3184525405846403:5.7399848672496514] [-5.332192141104958:1.7854168145016942] [-2.3364439176251257:2.3260208705968473] [-1.9606374953135333:3.8297976776257423] [-2.5598581308587867:2.9678748828307491] [-2.8484614565888107:1.7305348365471527] [-1.5744713930071574:4.4824289395184937] [-3.2215342315198989:2.4105454323445357] [-6.1157347797653321:2.4733151954255121] [-3.8597775589713876:2.6824707603069737] [-3.0246761800932127:2.8066023128515512] [-2.0954668992135601:2.9269823617202566] [-5.8373734502206416:1.9615459143177729] [-1.4973381611871532:4.4107360777871554] [-2.2199041321061364:2.9972605265742538] [-3.1794050999089212:2.7363101679588993] [-3.869153632598239:4.1184976441675252] [-2.1165018342733086:4.6893539216168705] [-4.004743550033929:2.942657247702932] [-2.7045267366301982:3.849295425025955] [-1.5339144283008745:4.7466342366540539] [-2.8310801063687987:2.544701710626581] [-3.4184680792935498:2.9132334543383633] [-4.6188489395531276:4.7953716568131322] [-4.4870516734180246:2.7220756612293084] [-1.8280464761760673:3.573219844694389] [-2.5128778300559604:4.4872724356296034] [-2.4805832702733634:8.1049751021804646] [-4.4157004647168909:3.9125185099503019] [-4.534699383383388:1.9173162722088264] [-2.5948357716243633:3.9226845619445778] [-2.2759931470489558:8.3178816070700563] [-2.1811237008721824:3.3327231627561749] [-5.4745685528899806:3.3450678774409339] [-3.4647665433602222:1.9218728587745761] [-6.958342132605484:1.8705500327101399] [-2.7091666422125633:3.0709782673459638] [-3.2262563785308753:2.919643742873276] [-2.2669791910451456:4.0244231045555301] [-6.2213254548997519:1.5957566136667634] [-2.1634987805811976:6.5599515352551734] [-5.8816364028314192:2.2460198843311847] [-2.2513241849328249:6.0040349061320537] [-7.7007027404304758:2.2976320495278637] [-3.8993991803650085:4.4271438079381147] [-3.818183579341818:2.4660580043788487] [-3.0851264744960831:3.5944136263794131] [-4.0744511662921052:1.6652497619486646] [-3.2136086853221451:2.6607246074291626] [-2.9569999683826653:2.4326438984534327] [-3.0641431128656071:2.6991403229215556] [-3.1074576163503473:1.8405989792183306] [-2.6494228897867265:2.5102904530906778] [-4.3982064136080954:2.2498528781943441] [-2.1789472728825006:4.6720826686845189] [-2.9757700282250599:1.6634949933735634] [-2.8968330668627984:2.3726809620699432] [-4.7831796509047066:1.742086784626927] [-2.47093930221547:4.5673113884400465] [-1.939765614760512:7.1730188443606124] [-5.3281557239853319:2.2493025690190245] [-4.7012150319337813:2.6649724151114311] [-2.3341654772817653:3.8902285554942635] [-2.1644759906002955:2.1586539423881996] [-1.9649974004198587:5.6322787429031926] [-3.173084451824614:2.5746537170633665] [-2.4696052284186094:2.4937195690324381] [-5.5433602356024627:3.3335974711639618] [-2.0855558723372489:3.9712846885237219] [-3.7386237119220866:1.878815485868407] [-2.4491474952207635:4.1866833329675206] [-6.1587444017693072:3.758793349342282] [-2.3400746022078773:2.4931943663651661] [-2.9198770192252352:3.8329718437271376] [-3.3352476542830982:2.239417016530763] [-2.5451149098170212:5.2973728650009937] [-3.9168827522793381:5.4647717981363639] [-5.3619408564509312:1.3923581477628642] [-8.8061961186747535:3.3787641046942225] [-2.4117419235447932:2.5205213074277855] [-2.9726470383478318:2.7377304260893705] [-2.9898027407297243:4.1395371111483561] [-3.7970181219567123:2.3099017961387962] [-4.848203285698113:3.000933965536368] [-2.0113065914511141:4.4996360641504651] [-2.4055596894812732:2.7001035338670558] [-2.3254673806786177:3.7723435429100349] [-2.419385779500868:4.0784272430449811] [-1.8414569908636995:4.4457347442545743] [-3.0294962004087544:2.6726178987349072] [-2.1246822012525426:3.1225960818632523] [-3.6354376707003375:4.3866674308157689] [-4.1221172075600343:2.4100130751493483] [-1.5681665720601592:3.9399368983464202] [-2.9070210612425225:3.1685656926491648] [-3.585585491065745:2.470797552295311] [-2.5224276396680203:2.2888694325152872] [-5.1967391492874286:2.2377529165103738] [-2.1089626718170598:2.722086180751436] [-2.9545900848995257:3.0955541270922704] [-2.2716298326931286:2.8340509614065259] [-2.0378581685133246:2.5382050857705041] [-1.9963306515169941:2.4999706458967745] [-2.7835147693577409:4.734655534691476] [-2.8656697401627595:2.5066920007299283] [-2.4484785589276901:6.2057862661443117] [-3.1783585110881494:2.9646554340387623] [-3.2488146870165013:2.9744717620378665] [-2.7929840307736131:2.5666325040941498] [-2.3966956512378248:3.0411701383670549] [-3.2465879426728672:2.7472602088916607] [-3.9506394999927745:1.9690020544997391] [-4.4658853937109857:2.7838728279085196] [-2.7045392066578771:4.4239458793898825] [-3.2131028775046389:2.9257670025879459] [-3.0010685701805024:2.7588365905003482] [-2.8083150943075008:8.4258493087842243] [-4.9016359643414722:1.7668580041419615] [-2.5655877272584431:1.6445283725842714] [-4.9358967454226574:1.9581481110841927] [-2.1174295612970191:3.1633411536439056] [-2.5689659054461433:3.2531510053200607] [-1.6521916371141556:6.0907384548455132] [-2.4899451535591965:3.4995714960033979] [-2.6520445432279249:3.444599763188418] [-5.2545022842662927:3.0536226697071429] [-2.0806461501320745:4.9394716275630959] [-5.2135984682401322:2.0614293384594] [-2.8913046886077689:3.5219814674229326] [-2.8214980286904905:2.4400826838732108] [-2.5132073945495774:2.3337420242617162] [-2.6428970074433562:5.0729097758426747] [-5.439391215462658:1.8511657677583246] [-2.885243937646977:3.1262300756126642] [-2.5879443268439242:3.7714335947042894] [-3.0892031221114586:2.2437163318256776] [-2.7296444189670712:2.5224347370443141] [-8.5641839235271497:2.5033159888099807] [-2.6163961709963321:3.746497315250612] [-2.3564086704667253:3.4741281699525981] [-2.1521158128346265:2.7456177818362675] [-5.8786458244257584:1.6701716492859651] [-2.3219443240376236:4.5389051124218014] [-4.0416331977306141:2.632338773489928] [-1.8597983011490911:5.0070925713660968] [-2.8393010122077729:3.5335101535234785] [-4.4867921351674145:2.2436244547795168] [-2.4371533775002385:2.6250314192444173] [-1.6382087491837189:4.5742551920222834] [-2.2243399697386499:4.9537784076599944] [-2.2014436870868548:3.3795709835030756] [-2.8235290306295431:4.0744121946250091] [-5.6931746856875405:2.0394378055869615] [-3.3256289911497459:2.1509508293837811] [-5.0435633910385365:2.5564359185738366] [-1.7806317340989248:5.0787396134072944] [-1.8997498748860102:3.1546190131887792] [-1.6137672212080167:3.9635986368328631] [-4.2924729849081293:4.600436601833688] [-2.098841064677706:7.0599432519321512] [-3.1495896075529433:6.1855173054907686] [-2.4239296330901365:2.3462271206067551] [-3.9821591908696066:2.4896137282666611] [-2.2791441047463681:2.9310696086310446] [-4.0108665132966568:2.9558246687286744] [-4.7565474844051137:2.2059299272346866] [-4.6276875483888817:2.5466393255019049] [-2.317723133837462:4.4090379704857208] [-2.5014966851311939:3.2795970803578443] [-5.5096324407905071:1.7194874418805699] [-4.3248657513372155:2.33960940890098] [-2.1944817498267857:3.0597398560589513] [-3.5506187479736493:4.0222752866798901] [-7.1313002921665518:3.0086415521569156] [-3.3027173795178353:3.0544328740458484] [-5.4716889918143128:3.2627219134767964] [-2.9675809045567041:2.5560562897916408] [-4.0665612868157908:2.5008442074547879] [-3.689275190087816:4.0353122101462491] [-4.4373942715223667:4.3143714345968798] [-5.9845094710051878:1.9213591985442326] [-3.386922534033018:1.955117204823031] [-5.9215280588262589:2.7160718523035743] [-7.5072036766613879:2.0951903045897837] [-2.5080982099169469:4.2204032002694394] [-3.8756509445388736:3.0418286155217236] [-4.000785086942618:2.6038250778835459] [-2.4842463101283987:5.5618211897827781] [-4.0478294791933669:2.5603316500649425] [-2.4212007635239514:3.7891168566539419] [-6.1484798498078153:1.9956938847426138] [-2.981095211370997:2.616657705122261] [-2.0719568652165838:7.6481133853968988] [-1.7816496184517356:5.4922275590281302] [-4.7106913386081803:3.6987304318988898] [-2.7679215475966079:2.2641798775554758] [-2.6449641581908367:5.7306946846619198] [-4.4574584370823063:2.4505515210841677] [-4.4820067631770915:2.0881045209506506] [-4.1962910616599842:2.2509593932896994] [-3.0411313557232842:3.7183088572396166] [-1.6523380987426459:5.4778173508134937] [-2.2938616603394175:3.4975162883129158] [-1.9426844365825706:5.1885288816905835] [-1.9327075208641855:2.8963964923694934] [-4.4890742396009227:6.584457831320143] [-3.9959827086483362:2.7024037972798509] [-6.7862837152920408:1.8749225548723449] [-2.5980950968595025:2.0171861488669807] [-2.4276915353470816:5.1188409571070963] [-2.2750757178264043:2.3772631612420292] [-3.2306003499412665:2.0176347713348877] [-3.4619219864198838:2.478568750169003] [-3.3653200669398147:2.6602153114506026] [-2.1967501520656656:4.2568761984202208] [-7.8171230449603932:2.8740176226414924] [-3.489973719818011:1.9965560904982829] [-2.6405565727782547:3.7529367233564721] [-3.7169862306101851:2.608166088945429] [-1.8940130667406374:5.4576237150642779] [-3.4360866470930342:2.9449804243281821] [-2.9233768847372033:6.2626557446591828] [-3.6175617296414311:2.5817739281434071] [-4.5408754686935398:2.6037610279137526] [-2.6267104020427188:3.0075701640824146] [-2.4843373639096584:2.2028298440908589] [-3.0838993609598706:1.9754817939998941] [-2.5292559172543396:3.6899594609445678] [-2.2786798509254682:3.1787496632660677] [-5.9511081170335807:2.3436894945231423] [-2.5607147502435326:2.4510565097847472] [-2.9134430271173057:4.3594101558916805] [-2.8605959947655597:2.0056111807489359] [-4.8196890477408232:2.6595785306458231] [-1.5923553012882576:4.8933431887198919] [-2.7857665189018936:3.0967849453932681] [-3.6267136598726624:3.2593248595561009] [-2.4310475118912316:4.3287397525636919] [-1.9365473364769481:3.8080839009767451] [-2.1213238779546977:3.4478880627685879] [-3.0190067178885109:1.7438761322325009] [-4.4126458058748312:2.0157296339647321] [-7.4376358390975668:2.0982884892045202] [-2.4546190670600185:4.5624857581510039] [-2.3776434991726392:4.0660391160604661] [-2.1751222237704879:3.5057833931252325] [-2.2987629750012482:4.9239170054938883] [-5.472001389316909:2.1306209255266508] [-2.6385409856080266:1.8505974062576322] [-3.3406689433931827:2.7129320127848637] [-3.2345007628502742:1.9627124926255426] [-5.1524199746243156:2.0355137691046337] [-2.9776048278193268:2.3708423685428852] [-6.2720014665690771:4.5532908912377152] [-6.0299452635856765:1.8991197280164167] [-2.999090385385752:4.5322744821009566] [-3.0044762109278991:2.1685149747604169] [-3.3549420049409111:3.7401669117129424] [-4.2483382888164067:1.9051314561996131] [-3.4763347092134067:2.2614835191349574] [-4.6124870970592555:2.0753523296854315] [-2.6799708627431889:4.2593690484902549] [-1.4914640666177936:4.4497463400349515] [-2.2302328531697388:2.8114389392248023] [-5.2545430774925981:3.6426397470643068] [-3.2763132931584114:2.2501297362558352] [-3.5025600586406713:2.4710459430222014] [-3.2632481428898377:2.0161911684131515] [-3.9749054179035928:2.4976630633712644] [-5.2257616996981406:1.7130378414323444] [-2.7102962621536002:2.0626439695765724] [-2.6020649107325018:5.594750221705759] [-3.6184571673985544:1.9753521355760373] [-3.3923020832821047:2.4270002366557835] [-5.3395274549132941:1.9966080308855951] [-2.4458170566792332:2.8076663783586699] [-2.0965092467885627:2.6487346927387878] [-4.9662358659669961:1.6944676785090271] [-2.793438750149015:4.0585956510001111] [-2.5659343921636055:3.8651906250522963] [-3.2172983986415065:1.8152640382346008] [-2.780188815275658:2.6450116060319506] [-3.1692319074138759:2.0062013026066605] [-2.3350410093086849:4.4883823151368176] [-2.9018875807963318:3.8592015288232342] [-4.6974505437135479:2.1581987696164253] [-2.8378781122669516:3.5357596311940056] [-3.9354127549749753:2.197435855225764] [-5.0606732644996084:2.795539174670802] [-2.2598726736569952:2.8991557769232839] [-4.9455997584874121:1.8676772793692673] [-8.1366422465479591:2.2885772727165667] [-2.4634451613244983:2.8108801798580854] [-4.8188019453515087:1.8061282949953055] [-2.153955754877737:5.5917933982486128] [-2.6487716851445113:2.7381274630203021] [-1.6267902948574005:4.8160694295998363] [-3.3892438487511436:1.9384829728419053] [-3.1875503441848165:2.884894724047133] [-2.9722806201001069:3.0885609370972085] [-2.295394021107378:7.3590350640704427] [-3.0877881367904862:2.8896723918574443] [-2.9487021105685502:2.0476563329061648] [-3.2551709517886773:3.2078920802680346] [-4.2563877990144583:2.4512572512640012] [-2.954745153349537:2.4106767872098112] [-2.7889609160601627:2.0991922057981842] [-1.9541550127941281:3.4921202028536507] [-3.3095273007446355:3.1243632347952035] [-1.9218291672358956:2.6320161855473114] [-0.92865722538394191:8.2102613793605386] [-4.7053784643180032:2.6783022552396529] [-2.292094715426269:4.4716720118567705] [-3.4846067755144738:2.8564749262513756] [-5.5264622534687842:1.594946971271455] [-0.52210416694781026:8.4049375002428643] [-1.8619051298815703:5.8767065952281996] [-3.3355656059579633:2.9785789882155895] [-3.1155305819339341:2.7693225755484914] [-2.5379159268806277:2.7979852967553676] [-1.8024116896078319:2.4305518869278946] [-2.0663204700771551:2.9175141855371942] [-2.2136119675795087:2.8295652174210755] [-1.5363369790012535:2.6211191195635921] [-1.8119248446750591:2.3416724111171501] [-2.0273967171425729:2.8414992082313724] [-2.036685418921127:2.7353684692322573] [-1.9996716312928065:6.7599645216622761] [-2.2245219353115142:2.3850354932682292] [-2.1937284403856232:2.4220988260188725] [-2.2284597716467327:2.3979485966442513] [-2.3988625061694333:2.5795881227318476] [-2.2265782696680665:2.3584240519228299] [-1.9070966116116839:3.3863308198158704] [-1.8138142473389418:5.8668513989674951] [-3.8057394488486054:2.9947641389082285] [-3.1203334184486216:2.7213894012199726] [-2.7849837554909662:2.6727892949790979] [-3.2035812917344906:2.2838308604177735] [-3.064914837064713:2.2895932889759143] [-2.6988624464860687:2.081919794922833] [-2.6753863468085939:2.8762858776563371] [-3.4318434883503253:3.3340407912531562] [-2.6144009491440707:2.1831360712829571] [-2.7239420354952246:2.1599278547857539] [-3.4287339121511233:2.1932872952837137] [-1.6406399146628601:5.3990079245618201] [-4.5888477602205295:2.9029641737528604] [-3.4828539173884745:2.3923939108185093] [-3.0321448642851134:2.8502941670307429] [-5.9951969024366214:1.9475033245189126] [-4.4296289299310061:2.806391704977016] [-5.7828069189472417:2.4513037250213143] [-3.2874313767406833:4.2994830468254497] [-3.0815143792915198:2.8306154546237812] [-4.4402439083450753:2.3509606044144551] [-3.4686898824983756:2.2380880686308133] [-2.4699779584954298:3.0806456438224799] [-2.9189276848085552:4.1247840501945445] [-3.0248962419642713:4.5712201234662722] [-2.8003051476960383:4.1187598043285956] [-2.1580541996371045:4.7066581876551368] [-2.8130395183600561:3.5178322708306449] [-3.1057839920703016:3.6327039991944949] [-2.7082054991577689:3.4249515020743049] [-2.6884048718152096:3.1328853127013869] [-3.2343135635885925:2.689139939343451] [-3.4955412240379422:2.6067151438889948] [-4.0317638979192179:2.7680557821937559] [-2.6966186068483995:3.4345215465990742] [-2.7831363893183063:3.0943722437473982] [-2.3817544746690285:2.8912833009399512] [-6.4111156234045668:1.0195684423286138]
tree_sizes=224 327 366 367 367 366 367 366 368 366 365 366 368 365 365 366 367 369 367 367 366 367 364 368 368 367 365 364 368 370 367 366 364 367 368 369 366 367 367 368 366 366 369 366 368 366 368 368 368 367 367 368 366 367 367 366 368 371 366 368 371 366 368 366 364 366 367 368 367 368 365 368 364 368 366 366 368 369 367 366 368 368 367 369 367 367 367 366 366 366 367 368 369 367 367 369 367 367 365 368 367 366 369 366 368 365 368 370 369 369 369 368 367 369 370 370 369 368 368 366 367 368 369 371 370 369 368 367 369 369 368 368 370 371 369 367 369 368 367 368 370 367 366 367 370 368 367 364 368 369 367 367 372 367 366 369 369 369 367 368 369 366 369 369 368 369 366 366 369 367 367 366 367 369 368 368 370 368 369 366 369 367 368 368 369 367 367 369 369 367 368 366 368 368 368 369 369 369 368 365 370 370 368 368 369 369 369 369 371 369 369 370 368 372 369 368 371 369 370 370 369 371 370 372 369 370 367 367 366 365 368 369

Tree=0
num_leaves=1
num_cat=0
split_feature=
split_gain=
threshold=
decision_type=
left_child=
right_child=
leaf_value=0
leaf_weight=
leaf_count=252
internal_value=
internal_weight=
internal_count=
is_linear=0
shrinkage=1


Tree=1
num_leaves=2
num_cat=0
split_feature=233
split_gain=31.049
threshold=-0.25812902457590609
decision_type=2
left_child=-1
right_child=-2
leaf_value=0.10327095558415918 -0.13119462459777959
leaf_weight=26 25
leaf_count=104 100
internal_value=-0.0117812
internal_weight=51
internal_count=204
is_linear=0
shrinkage=0.15131


Tree=2
num_leaves=2
num_cat=0
split_feature=491
split_gain=23.8986
threshold=-0.21344921885948598
decision_type=2
left_child=-1
right_child=-2
leaf_value=0.095008694162789287 -0.11104545693609566
leaf_weight=24.916356384754181 25.907177984714508
leaf_count=100 104
internal_value=-0.0100707
internal_weight=50.8235
internal_count=204
is_linear=0
shrinkage=0.15131


Tree=3
num_leaves=2
num_cat=0
split_feature=549
split_gain=23.4311
threshold=-0.18257906386674369
decision_type=2
left_child=-1
right_child=-2
leaf_value=0.093615158195772971 -0.11073014854446751
leaf_weight=25.326137065887451 25.318011492490768
leaf_count=102 102
internal_value=-0.00860378
internal_weight=50.6441
internal_count=204
is_linear=0
shrinkage=0.15131


Tree=4
num_leaves=2
num_cat=0
split_feature=554
split_gain=17.8779
threshold=-0.2914403479249697
decision_type=2
left_child=-1
right_child=-2
leaf_value=0.082066257376069235 -0.096777203407360249
leaf_weight=25.235245376825333 25.208878174424171
leaf_count=102 102
internal_value=-0.00736305
internal_weight=50.4441
internal_count=204
is_linear=0
shrinkage=0.15131


Tree=5
num_leaves=2
num_cat=0
split_feature=233
split_gain=20.2665
threshold=-0.25812902457590609
decision_type=2
left_child=-1
right_child=-2
leaf_value=0.087070354390456531 -0.10372401354603285
leaf_weight=25.686383545398712 24.578082516789436
leaf_count=104 100
internal_value=-0.0063002
internal_weight=50.2645
internal_count=204
is_linear=0
shrinkage=0.15131


Tree=6
num_leaves=2
num_cat=0
split_feature=94
split_gain=15.8319
threshold=-0.31199754454197309
decision_type=2
left_child=-1
right_child=-2
leaf_value=0.080815033732169667 -0.088607318506794847
leaf_weight=24.442428484559059 25.340066537261009
leaf_count=100 104
internal_value=-0.00544117
internal_weight=49.7825
internal_count=204
is_linear=0
shrinkage=0.15131


Tree=7
num_leaves=2
num_cat=0
split_feature=549
split_gain=15.623
threshold=-0.18257906386674369
decision_type=2
left_child=-1
right_child=-2
leaf_value=0.079216417357512711 -0.089589934028581536
leaf_weight=24.896745592355728 24.569275856018066
leaf_count=102 102
internal_value=-0.00467098
internal_weight=49.466
internal_count=204
is_linear=0
shrinkage=0.15131


Tree=8
num_leaves=2
num_cat=0
split_feature=491
split_gain=14.0571
threshold=-0.21344921885948598
decision_type=2
left_child=-1
right_child=-2
leaf_value=0.077732516215963443 -0.083052440962793059
leaf_weight=24.118460595607758 24.946610704064369
leaf_count=100 104
internal_value=-0.00402667
internal_weight=49.0651
internal_count=204
is_linear=0
shrinkage=0.15131


Tree=9
num_leaves=2
num_cat=0
split_feature=233
split_gain=13.084
threshold=-0.25812902457590609
decision_type=2
left_child=-1
right_child=-2
leaf_value=0.072419447259157846 -0.083397030159789456
leaf_weight=24.969273015856743 23.67193977534771
leaf_count=104 100
internal_value=-0.00346843
internal_weight=48.6412
internal_count=204
is_linear=0
shrinkage=0.15131


Tree=10
num_leaves=2
num_cat=0
split_feature=363
split_gain=19.2386
threshold=0.26119545047228038
decision_type=2
left_child=-1
right_child=-2
leaf_value=-0.081216720363176287 0.10942206491523455
leaf_weight=24.291013687849045 23.461555153131485
leaf_count=103 100
internal_value=0.0125691
internal_weight=47.7526
internal_count=203
is_linear=0
shrinkage=0.15131


Tree=11
num_leaves=2
num_cat=0
split_feature=640
split_gain=17.9345
threshold=-0.27130070538135831
decision_type=2
left_child=-1
right_child=-2
leaf_value=0.10257329005736286 -0.081939694021328016
leaf_weight=23.843450948596001 23.658768877387047
leaf_count=101 102
internal_value=0.0107531
internal_weight=47.5022
internal_count=203
is_linear=0
shrinkage=0.15131


Tree=12
num_leaves=2
num_cat=0
split_feature=316
split_gain=13.7356
threshold=-0.19847261008030392
decision_type=2
left_child=-1
right_child=-2
leaf_value=0.091036181606397426 -0.070995304761926142
leaf_weight=23.328245803713799 23.847926244139671
leaf_count=101 102
internal_value=0.00921359
internal_weight=47.1762
internal_count=203
is_linear=0
shrinkage=0.15131


Tree=13
num_leaves=2
num_cat=0
split_feature=640
split_gain=12.5098
threshold=-0.27130070538135831
decision_type=2
left_child=-1
right_child=-2
leaf_value=0.085503862219404828 -0.0699026279108802
leaf_weight=23.36838997900486 23.325292572379112
leaf_count=101 102
internal_value=0.00793357
internal_weight=46.6937
internal_count=203
is_linear=0
shrinkage=0.15131


Tree=14
num_leaves=2
num_cat=0
split_feature=185
split_gain=12.3674
threshold=0.1710485701556001
decision_type=2
left_child=-1
right_child=-2
leaf_value=-0.070539335446296536 0.084666663266529232
leaf_weight=23.227604031562805 23.046836167573929
leaf_count=102 101
internal_value=0.0068194
internal_weight=46.2744
internal_count=203
is_linear=0
shrinkage=0.15131


Tree=15
num_leaves=2
num_cat=0
split_feature=554
split_gain=11.5045
threshold=-0.24922716595995034
decision_type=2
left_child=-1
right_child=-2
leaf_value=0.080841785379625011 -0.069423133538338413
leaf_weight=22.989015489816666 22.9272401034832
leaf_count=102 101
internal_value=0.00585558
internal_weight=45.9163
internal_count=203
is_linear=0
shrinkage=0.15131


Tree=16
num_leaves=2
num_cat=0
split_feature=363
split_gain=10.2607
threshold=0.26119545047228038
decision_type=2
left_child=-1
right_child=-2
leaf_value=-0.064403916842968853 0.078163475087518794
leaf_weight=23.371907845139503 22.146989941596985
leaf_count=103 100
internal_value=0.00503302
internal_weight=45.5189
internal_count=203
is_linear=0
shrinkage=0.15131


Tree=17
num_leaves=2
num_cat=0
split_feature=590
split_gain=10.1495
threshold=1.0000000180025095e-35
decision_type=2
left_child=-1
right_child=-2
leaf_value=0.075035296930489562 -0.067334115439897119
leaf_weight=22.701776906847954 22.412209659814835
leaf_count=101 102
internal_value=0.00433529
internal_weight=45.114
internal_count=203
is_linear=0
shrinkage=0.15131


Tree=18
num_leaves=2
num_cat=0
split_feature=507
split_gain=8.69171
threshold=0.11165041056918429
decision_type=2
left_child=-1
right_child=-2
leaf_value=-0.063717062904868227 0.068448608821483431
leaf_weight=21.965930476784706 22.875504702329636
leaf_count=100 103
internal_value=0.00371463
internal_weight=44.8414
internal_count=203
is_linear=0
shrinkage=0.15131


Tree=19
num_leaves=2
num_cat=0
split_feature=549
split_gain=11.3366
threshold=-0.2041675077904955
decision_type=2
left_child=-1
right_child=-2
leaf_value=0.06664962369100795 -0.084037022722091251
leaf_weight=22.822845473885536 22.166565507650375
leaf_count=102 102
internal_value=-0.00767515
internal_weight=44.9894
internal_count=204
is_linear=0
shrinkage=0.15131


Tree=20
num_leaves=2
num_cat=0
split_feature=179
split_gain=8.42364
threshold=0.1524382817332128
decision_type=2
left_child=-1
right_child=-2
leaf_value=-0.072960895903136508 0.057518939052007265
leaf_weight=21.884367436170578 22.699359819293022
leaf_count=98 106
internal_value=-0.00660233
internal_weight=44.5837
internal_count=204
is_linear=0
shrinkage=0.15131


Tree=21
num_leaves=2
num_cat=0
split_feature=707
split_gain=9.08667
threshold=0.10487941876499075
decision_type=2
left_child=-1
right_child=-2
leaf_value=0.06200984664982627 -0.073919981111076463
leaf_weight=22.259130254387856 22.035421773791313
leaf_count=102 102
internal_value=-0.00566438
internal_weight=44.2946
internal_count=204
is_linear=0
shrinkage=0.15131


Tree=22
num_leaves=2
num_cat=0
split_feature=137
split_gain=7.22331
threshold=0.38159468409796865
decision_type=2
left_child=-1
right_child=-2
leaf_value=-0.063392607507152365 0.058011929867371456
leaf_weight=22.87420454621315 21.31680816411972
leaf_count=104 100
internal_value=-0.0048342
internal_weight=44.191
internal_count=204
is_linear=0
shrinkage=0.15131


Tree=23
num_leaves=2
num_cat=0
split_feature=549
split_gain=8.46536
threshold=-0.21664449941334521
decision_type=2
left_child=-1
right_child=-2
leaf_value=0.062596347020300008 -0.069457190924833476
leaf_weight=21.625524803996086 22.091688424348831
leaf_count=99 105
internal_value=-0.00415751
internal_weight=43.7172
internal_count=204
is_linear=0
shrinkage=0.15131


Tree=24
num_leaves=2
num_cat=0
split_feature=707
split_gain=7.58443
threshold=0.10487941876499075
decision_type=2
left_child=-1
right_child=-2
leaf_value=0.058706695390420185 -0.066831081905609421
leaf_weight=21.847698792815208 21.482957579195499
leaf_count=102 102
internal_value=-0.00357298
internal_weight=43.3307
internal_count=204
is_linear=0
shrinkage=0.15131


Tree=25
num_leaves=2
num_cat=0
split_feature=640
split_gain=7.2191
threshold=-0.27130070538135831
decision_type=2
left_child=-1
right_child=-2
leaf_value=0.058334752249658541 -0.06431043112023227
leaf_weight=21.589172542095184 21.617425054311752
leaf_count=100 104
internal_value=-0.00305313
internal_weight=43.2066
internal_count=204
is_linear=0
shrinkage=0.15131


Tree=26
num_leaves=2
num_cat=0
split_feature=814
split_gain=6.85696
threshold=-0.14696419555048038
decision_type=2
left_child=-1
right_child=-2
leaf_value=0.0603350621834534 -0.05979984466556338
leaf_weight=20.390741929411888 22.473146669566631
leaf_count=98 106
internal_value=-0.00262303
internal_weight=42.8639
internal_count=204
is_linear=0
shrinkage=0.15131


Tree=27
num_leaves=2
num_cat=0
split_feature=363
split_gain=6.4379
threshold=0.19183908312504358
decision_type=2
left_child=-1
right_child=-2
leaf_value=-0.061001946216885448 0.055419976378413713
leaf_weight=21.161979056894779 21.594745635986328
leaf_count=99 105
internal_value=-0.002231
internal_weight=42.7567
internal_count=204
is_linear=0
shrinkage=0.15131


Tree=28
num_leaves=2
num_cat=0
split_feature=820
split_gain=7.94528
threshold=-0.05044873213462206
decision_type=2
left_child=-1
right_child=-2
leaf_value=-0.068580220128142008 0.061302630932660543
leaf_weight=21.299278430640697 21.089034341275692
leaf_count=102 103
internal_value=-0.0039898
internal_weight=42.3883
internal_count=205
is_linear=0
shrinkage=0.15131


Tree=29
num_leaves=2
num_cat=0
split_feature=519
split_gain=8.48858
threshold=-0.072929409428391129
decision_type=2
left_child=-1
right_child=-2
leaf_value=0.065122185401025476 -0.069423473391389323
leaf_weight=20.711047664284706 21.501063086092472
leaf_count=101 104
internal_value=-0.00341745
internal_weight=42.2121
internal_count=205
is_linear=0
shrinkage=0.15131


Tree=30
num_leaves=2
num_cat=0
split_feature=549
split_gain=7.46062
threshold=-0.2041675077904955
decision_type=2
left_child=-1
right_child=-2
leaf_value=0.060443099111582077 -0.065983019832657891
leaf_weight=20.955444410443306 21.045449204742908
leaf_count=98 107
internal_value=-0.00292857
internal_weight=42.0009
internal_count=205
is_linear=0
shrinkage=0.15131


Tree=31
num_leaves=2
num_cat=0
split_feature=577
split_gain=6.82503
threshold=0.34223532187776035
decision_type=2
left_child=-1
right_child=-2
leaf_value=-0.065240122496321648 0.05632341245342859
leaf_weight=20.116288706660271 21.477268688380718
leaf_count=103 102
internal_value=-0.0025268
internal_weight=41.5936
internal_count=205
is_linear=0
shrinkage=0.15131


Tree=32
num_leaves=2
num_cat=0
split_feature=429
split_gain=5.994
threshold=0.15315651019966556
decision_type=2
left_child=-1
right_child=-2
leaf_value=-0.057847518773754221 0.056420784329955127
leaf_weight=21.193277463316917 20.12780573964119
leaf_count=106 99
internal_value=-0.00217973
internal_weight=41.3211
internal_count=205
is_linear=0
shrinkage=0.15131


Tree=33
num_leaves=2
num_cat=0
split_feature=519
split_gain=5.82198
threshold=-0.072929409428391129
decision_type=2
left_child=-1
right_child=-2
leaf_value=0.055418137810519512 -0.057285543545302922
leaf_weight=20.28115027397871 20.958847247064114
leaf_count=101 104
internal_value=-0.00185975
internal_weight=41.24
internal_count=205
is_linear=0
shrinkage=0.15131


Tree=34
num_leaves=2
num_cat=0
split_feature=233
split_gain=5.52887
threshold=-0.34066205512809961
decision_type=2
left_child=-1
right_child=-2
leaf_value=0.051679300518190648 -0.058490929510562541
leaf_weight=21.200106225907803 19.815891623497009
leaf_count=105 100
internal_value=-0.00159421
internal_weight=41.016
internal_count=205
is_linear=0
shrinkage=0.15131


Tree=35
num_leaves=2
num_cat=0
split_feature=820
split_gain=5.24882
threshold=-0.077913806067021502
decision_type=2
left_child=-1
right_child=-2
leaf_value=-0.056617332803010186 0.051303897767196835
leaf_weight=19.783679105341434 20.764428727328777
leaf_count=98 107
internal_value=-0.00138763
internal_weight=40.5481
internal_count=205
is_linear=0
shrinkage=0.15131


Tree=36
num_leaves=2
num_cat=0
split_feature=658
split_gain=5.20574
threshold=0.17830505264619809
decision_type=2
left_child=-1
right_child=-2
leaf_value=-0.056241731106279981 0.051473623985065421
leaf_weight=19.724028758704662 20.639014035463333
leaf_count=98 107
internal_value=-0.00119613
internal_weight=40.363
internal_count=205
is_linear=0
shrinkage=0.15131


Tree=37
num_leaves=2
num_cat=0
split_feature=785
split_gain=7.46006
threshold=-0.056837432544234658
decision_type=2
left_child=-1
right_child=-2
leaf_value=-0.046846178486121895 0.081544871892068327
leaf_weight=19.652881801128387 21.133522719144821
leaf_count=98 106
internal_value=0.0198159
internal_weight=40.7864
internal_count=204
is_linear=0
shrinkage=0.15131


Tree=38
num_leaves=2
num_cat=0
split_feature=719
split_gain=7.16035
threshold=-0.020675834015189073
decision_type=2
left_child=-1
right_child=-2
leaf_value=0.078045932528167078 -0.047808552037989026
leaf_weight=20.890672884881496 19.816805005073547
leaf_count=106 98
internal_value=0.0169009
internal_weight=40.7075
internal_count=204
is_linear=0
shrinkage=0.15131


Tree=39
num_leaves=2
num_cat=0
split_feature=189
split_gain=7.10535
threshold=-0.062332425346790031
decision_type=2
left_child=-1
right_child=-2
leaf_value=0.077094636241246517 -0.048539404674439443
leaf_weight=20.269625261425972 20.229301817715168
leaf_count=101 103
internal_value=0.0144699
internal_weight=40.4989
internal_count=204
is_linear=0
shrinkage=0.15131


Tree=40
num_leaves=2
num_cat=0
split_feature=310
split_gain=6.14296
threshold=-0.18270435713406993
decision_type=2
left_child=-1
right_child=-2
leaf_value=0.071259326010647342 -0.045997330935067429
leaf_weight=19.984828889369965 20.203198328614235
leaf_count=102 102
internal_value=0.0124315
internal_weight=40.188
internal_count=204
is_linear=0
shrinkage=0.15131


Tree=41
num_leaves=2
num_cat=0
split_feature=602
split_gain=5.34507
threshold=-0.21032061913365441
decision_type=2
left_child=-1
right_child=-2
leaf_value=0.064529956020916823 -0.045006974306566187
leaf_weight=20.321102097630501 19.751485913991928
leaf_count=105 99
internal_value=0.0106228
internal_weight=40.0726
internal_count=204
is_linear=0
shrinkage=0.15131


Tree=42
num_leaves=2
num_cat=0
split_feature=785
split_gain=5.71719
threshold=-0.027258777570647642
decision_type=2
left_child=-1
right_child=-2
leaf_value=-0.046597692904747058 0.067143449451066109
leaf_weight=20.313983909785748 19.439119681715965
leaf_count=104 100
internal_value=0.00912843
internal_weight=39.7531
internal_count=204
is_linear=0
shrinkage=0.15131


Tree=43
num_leaves=2
num_cat=0
split_feature=40
split_gain=5.33583
threshold=0.20582903932894533
decision_type=2
left_child=-1
right_child=-2
leaf_value=-0.048414107952861246 0.061662220192078551
leaf_weight=19.393721662461758 20.212395660579205
leaf_count=103 101
internal_value=0.00781288
internal_weight=39.6061
internal_count=204
is_linear=0
shrinkage=0.15131


Tree=44
num_leaves=2
num_cat=0
split_feature=719
split_gain=4.93023
threshold=-0.020675834015189073
decision_type=2
left_child=-1
right_child=-2
leaf_value=0.058804057704259519 -0.047443675331039853
leaf_weight=20.001896299421787 19.267838902771473
leaf_count=106 98
internal_value=0.00671729
internal_weight=39.2697
internal_count=204
is_linear=0
shrinkage=0.15131


Tree=45
num_leaves=2
num_cat=0
split_feature=708
split_gain=4.78554
threshold=-0.10285749738596901
decision_type=2
left_child=-1
right_child=-2
leaf_value=0.060049818233168351 -0.04494331322226388
leaf_weight=18.829562723636627 20.234386749565601
leaf_count=96 108
internal_value=0.00575465
internal_weight=39.0639
internal_count=204
is_linear=0
shrinkage=0.15131


Tree=46
num_leaves=2
num_cat=0
split_feature=554
split_gain=8.06281
threshold=-0.24922716595995034
decision_type=2
left_child=-1
right_child=-2
leaf_value=0.069854274905390659 -0.065536231353973615
leaf_weight=20.007654689252377 19.533859118819237
leaf_count=106 102
internal_value=0.00298271
internal_weight=39.5415
internal_count=208
is_linear=0
shrinkage=0.15131


Tree=47
num_leaves=2
num_cat=0
split_feature=707
split_gain=6.19717
threshold=1.0000000180025095e-35
decision_type=2
left_child=-1
right_child=-2
leaf_value=0.064710905875792271 -0.054636903220116335
leaf_weight=18.749569036066532 20.418401457369328
leaf_count=95 113
internal_value=0.00256595
internal_weight=39.168
internal_count=208
is_linear=0
shrinkage=0.15131


Tree=48
num_leaves=2
num_cat=0
split_feature=204
split_gain=6.78096
threshold=-0.18994845865195667
decision_type=2
left_child=-1
right_child=-2
leaf_value=0.063257397709111124 -0.061760583982219446
leaf_weight=19.960401028394699 19.046942532062531
leaf_count=108 100
internal_value=0.00220539
internal_weight=39.0073
internal_count=208
is_linear=0
shrinkage=0.15131


Tree=49
num_leaves=2
num_cat=0
split_feature=620
split_gain=5.78788
threshold=-0.15327829357118286
decision_type=2
left_child=-1
right_child=-2
leaf_value=0.056673702617318474 -0.059251694288629399
leaf_weight=20.483967080712318 18.329396739602089
leaf_count=110 98
internal_value=0.00188561
internal_weight=38.8134
internal_count=208
is_linear=0
shrinkage=0.15131


Tree=50
num_leaves=2
num_cat=0
split_feature=707
split_gain=5.5594
threshold=1.0000000180025095e-35
decision_type=2
left_child=-1
right_child=-2
leaf_value=0.06045092244373567 -0.053501538845682199
leaf_weight=18.604650549590588 19.900256544351578
leaf_count=95 113
internal_value=0.00160927
internal_weight=38.5049
internal_count=208
is_linear=0
shrinkage=0.15131


Tree=51
num_leaves=2
num_cat=0
split_feature=204
split_gain=5.14275
threshold=-0.18994845865195667
decision_type=2
left_child=-1
right_child=-2
leaf_value=0.055169513688574458 -0.054622647071419617
leaf_weight=19.561315424740314 18.778806999325752
leaf_count=108 100
internal_value=0.00138563
internal_weight=38.3401
internal_count=208
is_linear=0
shrinkage=0.15131


Tree=52
num_leaves=2
num_cat=0
split_feature=658
split_gain=5.11493
threshold=0.089550907525833404
decision_type=2
left_child=-1
right_child=-2
leaf_value=-0.054137602793762757 0.055599815495593806
leaf_weight=18.920407887548208 19.233906485140324
leaf_count=99 109
internal_value=0.0011846
internal_weight=38.1543
internal_count=208
is_linear=0
shrinkage=0.15131


Tree=53
num_leaves=2
num_cat=0
split_feature=554
split_gain=5.70293
threshold=-0.16765375409425431
decision_type=2
left_child=-1
right_child=-2
leaf_value=0.056711427527993859 -0.059390027794694586
leaf_weight=19.813780058175325 18.248454794287682
leaf_count=111 97
internal_value=0.00101183
internal_weight=38.0622
internal_count=208
is_linear=0
shrinkage=0.15131


Tree=54
num_leaves=2
num_cat=0
split_feature=211
split_gain=5.20374
threshold=0.075636374289234587
decision_type=2
left_child=-1
right_child=-2
leaf_value=-0.056790510474560754 0.054609170937054495
leaf_weight=18.179677549749613 19.52208998054266
leaf_count=96 112
internal_value=0.000862405
internal_weight=37.7018
internal_count=208
is_linear=0
shrinkage=0.15131


Tree=55
num_leaves=2
num_cat=0
split_feature=137
split_gain=5.1261
threshold=0.29106506159949624
decision_type=2
left_child=-1
right_child=-2
leaf_value=-0.065329146576368333 0.046513751433949743
leaf_weight=18.829038795083761 17.986215937882662
leaf_count=101 103
internal_value=-0.0107694
internal_weight=36.8153
internal_count=204
is_linear=0
shrinkage=0.15131


Tree=56
num_leaves=2
num_cat=0
split_feature=577
split_gain=5.24864
threshold=0.34223532187776035
decision_type=2
left_child=-1
right_child=-2
leaf_value=-0.066956915891424343 0.046792888841062148
leaf_weight=17.918868210166693 18.502311434596777
leaf_count=103 101
internal_value=-0.00928235
internal_weight=36.4212
internal_count=204
is_linear=0
shrinkage=0.15131


Tree=57
num_leaves=2
num_cat=0
split_feature=415
split_gain=4.83285
threshold=1.0000000180025095e-35
decision_type=2
left_child=-1
right_child=-2
leaf_value=-0.061529249634031495 0.048087088722726948
leaf_weight=18.455800086259842 17.657078333199024
leaf_count=103 101
internal_value=-0.00798958
internal_weight=36.1129
internal_count=204
is_linear=0
shrinkage=0.15131


Tree=58
num_leaves=2
num_cat=0
split_feature=526
split_gain=5.58537
threshold=-0.16603821392840029
decision_type=2
left_child=-1
right_child=-2
leaf_value=0.053046122600623719 -0.064967593860362341
leaf_weight=17.747456770390272 18.24471540376544
leaf_count=105 99
internal_value=-0.0068287
internal_weight=35.9922
internal_count=204
is_linear=0
shrinkage=0.15131


Tree=59
num_leaves=2
num_cat=0
split_feature=526
split_gain=4.05665
threshold=-0.16603821392840029
decision_type=2
left_child=-1
right_child=-2
leaf_value=0.045195169098800711 -0.055421381710288126
leaf_weight=17.743631809949875 18.217635937035084
leaf_count=105 99
internal_value=-0.00582186
internal_weight=35.9613
internal_count=204
is_linear=0
shrinkage=0.15131


Tree=60
num_leaves=2
num_cat=0
split_feature=507
split_gain=3.84822
threshold=1.0000000180025095e-35
decision_type=2
left_child=-1
right_child=-2
leaf_value=-0.054128465339458892 0.043919066493151339
leaf_weight=17.887905348092318 18.029277063906193
leaf_count=101 103
internal_value=-0.00496616
internal_weight=35.9172
internal_count=204
is_linear=0
shrinkage=0.15131


Tree=61
num_leaves=2
num_cat=0
split_feature=697
split_gain=3.8783
threshold=-0.12425949599275522
decision_type=2
left_child=-1
right_child=-2
leaf_value=-0.056603354875353833 0.042352587339362015
leaf_weight=16.759664304554462 18.89223537966609
leaf_count=97 107
internal_value=-0.00427019
internal_weight=35.6519
internal_count=204
is_linear=0
shrinkage=0.15131


Tree=62
num_leaves=2
num_cat=0
split_feature=207
split_gain=3.74039
threshold=-0.24126288531812748
decision_type=2
left_child=-1
right_child=-2
leaf_value=0.047433166064791463 -0.049848344551854142
leaf_weight=16.868212282657623 18.672640662640333
leaf_count=95 109
internal_value=-0.00366394
internal_weight=35.5409
internal_count=204
is_linear=0
shrinkage=0.15131


Tree=63
num_leaves=2
num_cat=0
split_feature=85
split_gain=3.47506
threshold=0.20990091599819535
decision_type=2
left_child=-1
right_child=-2
leaf_value=-0.049984309559353457 0.043877216600791934
leaf_weight=17.706682033836842 17.671638194471598
leaf_count=94 110
internal_value=-0.00313136
internal_weight=35.3783
internal_count=204
is_linear=0
shrinkage=0.15131


Tree=64
num_leaves=2
num_cat=0
split_feature=491
split_gain=4.32003
threshold=-0.22876604685516208
decision_type=2
left_child=-1
right_child=-2
leaf_value=0.06575989001492584 -0.040489219495324337
leaf_weight=17.053736221045256 17.26703167706728
leaf_count=101 99
internal_value=0.0124446
internal_weight=34.3208
internal_count=200
is_linear=0
shrinkage=0.15131


Tree=65
num_leaves=2
num_cat=0
split_feature=796
split_gain=3.91787
threshold=0.069402735815757857
decision_type=2
left_child=-1
right_child=-2
leaf_value=-0.041318870759238915 0.060423568926829471
leaf_weight=16.606719825416803 17.340025946497917
leaf_count=101 99
internal_value=0.0107431
internal_weight=33.9467
internal_count=200
is_linear=0
shrinkage=0.15131


Tree=66
num_leaves=2
num_cat=0
split_feature=156
split_gain=2.92545
threshold=-0.081442352697221096
decision_type=2
left_child=-1
right_child=-2
leaf_value=0.053820451572448566 -0.034137467784866593
leaf_weight=16.649182248860598 17.26027637720108
leaf_count=103 97
internal_value=0.00916462
internal_weight=33.9095
internal_count=200
is_linear=0
shrinkage=0.15131


Tree=67
num_leaves=2
num_cat=0
split_feature=275
split_gain=2.83411
threshold=-0.043420251542385289
decision_type=2
left_child=-1
right_child=-2
leaf_value=-0.035651750449168788 0.051199686735254435
leaf_weight=16.829453270882368 16.844270475208759
leaf_count=95 105
internal_value=0.00787801
internal_weight=33.6737
internal_count=200
is_linear=0
shrinkage=0.15131


Tree=68
num_leaves=2
num_cat=0
split_feature=719
split_gain=3.86584
threshold=-0.034957187272549893
decision_type=2
left_child=-1
right_child=-2
leaf_value=0.058904968520906646 -0.042718831586901651
leaf_weight=16.302218288183212 17.26567530632019
leaf_count=104 96
internal_value=0.00673963
internal_weight=33.5679
internal_count=200
is_linear=0
shrinkage=0.15131


Tree=69
num_leaves=2
num_cat=0
split_feature=518
split_gain=3.99492
threshold=-0.034115198224435463
decision_type=2
left_child=-1
right_child=-2
leaf_value=-0.046852688718517096 0.056650688016178632
leaf_weight=16.437907863408327 16.979305230081081
leaf_count=101 99
internal_value=0.00578222
internal_weight=33.4172
internal_count=200
is_linear=0
shrinkage=0.15131


Tree=70
num_leaves=2
num_cat=0
split_feature=491
split_gain=2.73975
threshold=-0.22876604685516208
decision_type=2
left_child=-1
right_child=-2
leaf_value=0.04842732955642759 -0.037306658145651789
leaf_weight=16.428927224129438 16.973461449146271
leaf_count=101 99
internal_value=0.0049306
internal_weight=33.4024
internal_count=200
is_linear=0
shrinkage=0.15131


Tree=71
num_leaves=2
num_cat=0
split_feature=108
split_gain=3.17279
threshold=-0.053509529165413315
decision_type=2
left_child=-1
right_child=-2
leaf_value=-0.041586606987831912 0.051082464851360698
leaf_weight=16.746328491717577 16.350204057991505
leaf_count=109 91
internal_value=0.00425242
internal_weight=33.0965
internal_count=200
is_linear=0
shrinkage=0.15131


Tree=72
num_leaves=2
num_cat=0
split_feature=416
split_gain=2.73305
threshold=0.13757935446236172
decision_type=2
left_child=-1
right_child=-2
leaf_value=0.04522001648300266 -0.04067501934940744
leaf_weight=17.120495311915874 16.091099932789803
leaf_count=99 101
internal_value=0.00361406
internal_weight=33.2116
internal_count=200
is_linear=0
shrinkage=0.15131


Tree=73
num_leaves=2
num_cat=0
split_feature=820
split_gain=5.46978
threshold=-0.058326188825388904
decision_type=2
left_child=-1
right_child=-2
leaf_value=-0.076769734839637949 0.042660263420720178
leaf_weight=16.814268592745066 17.601908635348082
leaf_count=97 107
internal_value=-0.0158856
internal_weight=34.4162
internal_count=204
is_linear=0
shrinkage=0.15131


Tree=74
num_leaves=2
num_cat=0
split_feature=363
split_gain=4.20798
threshold=0.099185708325401092
decision_type=2
left_child=-1
right_child=-2
leaf_value=-0.066353840635826528 0.038602171910875192
leaf_weight=16.99526446685195 17.268237058073282
leaf_count=91 113
internal_value=-0.0136117
internal_weight=34.2635
internal_count=204
is_linear=0
shrinkage=0.15131


Tree=75
num_leaves=2
num_cat=0
split_feature=547
split_gain=5.02756
threshold=0.23339298164316499
decision_type=2
left_child=-1
right_child=-2
leaf_value=-0.067742881020973714 0.047475212634942351
leaf_weight=17.425821013748646 16.547954019159079
leaf_count=106 98
internal_value=-0.0117163
internal_weight=33.9738
internal_count=204
is_linear=0
shrinkage=0.15131


Tree=76
num_leaves=2
num_cat=0
split_feature=417
split_gain=4.08103
threshold=-0.083702484531360782
decision_type=2
left_child=-1
right_child=-2
leaf_value=-0.063060089951055956 0.041051919507082063
leaf_weight=16.529804531484842 17.231721822172403
leaf_count=98 106
internal_value=-0.0100539
internal_weight=33.7615
internal_count=204
is_linear=0
shrinkage=0.15131


Tree=77
num_leaves=2
num_cat=0
split_feature=820
split_gain=3.97109
threshold=-0.05044873213462206
decision_type=2
left_child=-1
right_child=-2
leaf_value=-0.060154955752521846 0.042763112437405444
leaf_weight=16.743499789386988 16.854747865349054
leaf_count=100 104
internal_value=-0.00862287
internal_weight=33.5982
internal_count=204
is_linear=0
shrinkage=0.15131


Tree=78
num_leaves=2
num_cat=0
split_feature=40
split_gain=3.60326
threshold=0.25314636563460458
decision_type=2
left_child=-1
right_child=-2
leaf_value=-0.057067333592886668 0.041162515963699686
leaf_weight=16.507748272269964 16.958546914160252
leaf_count=104 100
internal_value=-0.00738575
internal_weight=33.4663
internal_count=204
is_linear=0
shrinkage=0.15131


Tree=79
num_leaves=2
num_cat=0
split_feature=547
split_gain=3.36837
threshold=0.23339298164316499
decision_type=2
left_child=-1
right_child=-2
leaf_value=-0.053151490543452161 0.04227916724750256
leaf_weight=16.878992650657892 16.264330666512251
leaf_count=106 98
internal_value=-0.00637168
internal_weight=33.1433
internal_count=204
is_linear=0
shrinkage=0.15131


Tree=80
num_leaves=2
num_cat=0
split_feature=400
split_gain=3.15505
threshold=-0.10101580526152169
decision_type=2
left_child=-1
right_child=-2
leaf_value=0.04085510620050091 -0.051746953969116223
leaf_weight=16.491467513144016 16.462074484676123
leaf_count=101 103
internal_value=-0.00546601
internal_weight=32.9535
internal_count=204
is_linear=0
shrinkage=0.15131


Tree=81
num_leaves=2
num_cat=0
split_feature=640
split_gain=3.88868
threshold=-0.2507879487423878
decision_type=2
left_child=-1
right_child=-2
leaf_value=0.047810622326705077 -0.055148013194182902
leaf_weight=16.119534820318222 16.743658035993576
leaf_count=102 102
internal_value=-0.00467652
internal_weight=32.8632
internal_count=204
is_linear=0
shrinkage=0.15131


Tree=82
num_leaves=2
num_cat=0
split_feature=335
split_gain=3.2651
threshold=-0.086082481429061691
decision_type=2
left_child=-1
right_child=-2
leaf_value=-0.053437481332771597 0.042173138715830442
leaf_weight=15.75666254758835 16.217570155858994
leaf_count=91 109
internal_value=-0.00501592
internal_weight=31.9742
internal_count=200
is_linear=0
shrinkage=0.15131


Tree=83
num_leaves=2
num_cat=0
split_feature=485
split_gain=5.15424
threshold=-0.062646130976976258
decision_type=2
left_child=-1
right_child=-2
leaf_value=-0.068692057607651069 0.051819857003878346
leaf_weight=14.819962061941625 17.095447439700365
leaf_count=88 112
internal_value=-0.00428709
internal_weight=31.9154
internal_count=200
is_linear=0
shrinkage=0.15131


Tree=84
num_leaves=2
num_cat=0
split_feature=549
split_gain=4.12433
threshold=-0.2041675077904955
decision_type=2
left_child=-1
right_child=-2
leaf_value=0.049180817971812438 -0.058640240305670756
leaf_weight=16.203749023377899 15.554145179688929
leaf_count=101 99
internal_value=-0.00369465
internal_weight=31.7579
internal_count=200
is_linear=0
shrinkage=0.15131


Tree=85
num_leaves=2
num_cat=0
split_feature=273
split_gain=3.65837
threshold=0.27009513321104633
decision_type=2
left_child=-1
right_child=-2
leaf_value=-0.053279388379872804 0.048757102286045795
leaf_weight=16.004302162677053 15.439762260764835
leaf_count=93 107
internal_value=-0.00319283
internal_weight=31.4441
internal_count=200
is_linear=0
shrinkage=0.15131


Tree=86
num_leaves=2
num_cat=0
split_feature=549
split_gain=2.97334
threshold=-0.2041675077904955
decision_type=2
left_child=-1
right_child=-2
leaf_value=0.042340031497704066 -0.049765126869211529
leaf_weight=16.038557477295402 15.329663276672362
leaf_count=101 99
internal_value=-0.00272762
internal_weight=31.3682
internal_count=200
is_linear=0
shrinkage=0.15131


Tree=87
num_leaves=2
num_cat=0
split_feature=273
split_gain=2.63736
threshold=0.27009513321104633
decision_type=2
left_child=-1
right_child=-2
leaf_value=-0.045155971780887823 0.041954434693910768
leaf_weight=15.812341328710319 15.28046262077987
leaf_count=93 107
internal_value=-0.00235592
internal_weight=31.0928
internal_count=200
is_linear=0
shrinkage=0.15131


Tree=88
num_leaves=2
num_cat=0
split_feature=416
split_gain=2.78703
threshold=0.1061808328165751
decision_type=2
left_child=-1
right_child=-2
leaf_value=0.043058081481823593 -0.046578209432351976
leaf_weight=15.429695285856726 15.592076374217866
leaf_count=96 104
internal_value=-0.00201273
internal_weight=31.0218
internal_count=200
is_linear=0
shrinkage=0.15131


Tree=89
num_leaves=2
num_cat=0
split_feature=40
split_gain=2.82935
threshold=0.22461388076700803
decision_type=2
left_child=-1
right_child=-2
leaf_value=-0.045960478886442301 0.044306111415466025
leaf_weight=15.838734555989506 15.227372976019977
leaf_count=104 96
internal_value=-0.00171459
internal_weight=31.0661
internal_count=200
is_linear=0
shrinkage=0.15131


Tree=90
num_leaves=2
num_cat=0
split_feature=283
split_gain=2.74912
threshold=0.15352139888532662
decision_type=2
left_child=-1
right_child=-2
leaf_value=0.043921216976206261 -0.045405172382782272
leaf_weight=15.154801141470672 15.659633764997123
leaf_count=95 105
internal_value=-0.00147375
internal_weight=30.8144
internal_count=200
is_linear=0
shrinkage=0.15131


Tree=91
num_leaves=2
num_cat=0
split_feature=707
split_gain=5.8773
threshold=1.0000000180025095e-35
decision_type=2
left_child=-1
right_child=-2
leaf_value=0.067463341495111434 -0.059196356240034956
leaf_weight=17.082271717488766 15.776616925373672
leaf_count=94 111
internal_value=0.00666802
internal_weight=32.8589
internal_count=205
is_linear=0
shrinkage=0.15131


Tree=92
num_leaves=2
num_cat=0
split_feature=129
split_gain=4.13533
threshold=-0.095988352287399895
decision_type=2
left_child=-1
right_child=-2
leaf_value=0.057492619673796472 -0.048863940938231189
leaf_weight=16.791214717552066 15.966441888362167
leaf_count=103 102
internal_value=0.00568672
internal_weight=32.7577
internal_count=205
is_linear=0
shrinkage=0.15131


Tree=93
num_leaves=2
num_cat=0
split_feature=707
split_gain=4.64123
threshold=1.0000000180025095e-35
decision_type=2
left_child=-1
right_child=-2
leaf_value=0.05915953956529281 -0.053708523131884602
leaf_weight=16.946958266198635 15.71926588565111
leaf_count=94 111
internal_value=0.00485323
internal_weight=32.6662
internal_count=205
is_linear=0
shrinkage=0.15131


Tree=94
num_leaves=2
num_cat=0
split_feature=823
split_gain=3.69141
threshold=0.054523552971747248
decision_type=2
left_child=-1
right_child=-2
leaf_value=-0.044146289806309323 0.056697458841114892
leaf_weight=17.001009253785014 15.55978733114898
leaf_count=104 101
internal_value=0.00414012
internal_weight=32.5608
internal_count=205
is_linear=0
shrinkage=0.15131


Tree=95
num_leaves=2
num_cat=0
split_feature=129
split_gain=3.12853
threshold=-0.095988352287399895
decision_type=2
left_child=-1
right_child=-2
leaf_value=0.049336916323115931 -0.043649141527837373
leaf_weight=16.439009562134743 15.959868535399435
leaf_count=103 102
internal_value=0.00355596
internal_weight=32.3989
internal_count=205
is_linear=0
shrinkage=0.15131


Tree=96
num_leaves=2
num_cat=0
split_feature=697
split_gain=2.99023
threshold=-0.050793362939788721
decision_type=2
left_child=-1
right_child=-2
leaf_value=-0.041738408321163142 0.049296248943259818
leaf_weight=16.436437904834747 15.872150508686898
leaf_count=107 98
internal_value=0.0030361
internal_weight=32.3086
internal_count=205
is_linear=0
shrinkage=0.15131


Tree=97
num_leaves=2
num_cat=0
split_feature=429
split_gain=2.94542
threshold=0.12139330625644022
decision_type=2
left_child=-1
right_child=-2
leaf_value=-0.042053881201343339 0.048470384924005114
leaf_weight=16.320347875356674 15.857568101957439
leaf_count=102 103
internal_value=0.00260148
internal_weight=32.1779
internal_count=205
is_linear=0
shrinkage=0.15131


Tree=98
num_leaves=2
num_cat=0
split_feature=283
split_gain=2.87875
threshold=0.20839125515873244
decision_type=2
left_child=-1
right_child=-2
leaf_value=0.04714450809463009 -0.042466887170010501
leaf_weight=15.991908280178903 16.093167366459966
leaf_count=99 106
internal_value=0.00222586
internal_weight=32.0851
internal_count=205
is_linear=0
shrinkage=0.15131


Tree=99
num_leaves=2
num_cat=0
split_feature=446
split_gain=2.65823
threshold=1.0000000180025095e-35
decision_type=2
left_child=-1
right_child=-2
leaf_value=-0.039142964769164498 0.046914539045417987
leaf_weight=16.87164468318224 15.326186520978807
leaf_count=106 99
internal_value=0.00188858
internal_weight=32.1978
internal_count=205
is_linear=0
shrinkage=0.15131


Tree=100
num_leaves=2
num_cat=0
split_feature=232
split_gain=4.59626
threshold=-0.065157239337710463
decision_type=2
left_child=-1
right_child=-2
leaf_value=0.0611832495819358 -0.054548092327731432
leaf_weight=15.209754999727013 15.473769722506402
leaf_count=102 99
internal_value=0.00286546
internal_weight=30.6835
internal_count=201
is_linear=0
shrinkage=0.15131


Tree=101
num_leaves=2
num_cat=0
split_feature=830
split_gain=4.83559
threshold=0.24233920591067495
decision_type=2
left_child=-1
right_child=-2
leaf_value=-0.057262804085876501 0.06186205678318403
leaf_weight=15.195859281346204 15.264805259183047
leaf_count=98 103
internal_value=0.00246058
internal_weight=30.4607
internal_count=201
is_linear=0
shrinkage=0.15131


Tree=102
num_leaves=2
num_cat=0
split_feature=232
split_gain=3.39703
threshold=-0.065157239337710463
decision_type=2
left_child=-1
right_child=-2
leaf_value=0.052390576264117347 -0.047631308035884445
leaf_weight=15.081045839935543 15.270475538447497
leaf_count=102 99
internal_value=0.00210013
internal_weight=30.3515
internal_count=201
is_linear=0
shrinkage=0.15131


Tree=103
num_leaves=2
num_cat=0
split_feature=830
split_gain=4.09527
threshold=0.2476215545871541
decision_type=2
left_child=-1
right_child=-2
leaf_value=-0.052751133321394778 0.057430685850413818
leaf_weight=15.232184788212182 14.918041404336689
leaf_count=99 102
internal_value=0.00180133
internal_weight=30.1502
internal_count=201
is_linear=0
shrinkage=0.15131


Tree=104
num_leaves=2
num_cat=0
split_feature=113
split_gain=2.81096
threshold=0.084225292829256129
decision_type=2
left_child=-1
right_child=-2
leaf_value=-0.042411061825337631 0.049114058723070245
leaf_weight=15.632543122395875 14.401350155472754
leaf_count=106 95
internal_value=0.00153962
internal_weight=30.0339
internal_count=201
is_linear=0
shrinkage=0.15131


Tree=105
num_leaves=2
num_cat=0
split_feature=830
split_gain=3.00559
threshold=0.2476215545871541
decision_type=2
left_child=-1
right_child=-2
leaf_value=-0.045694523725836635 0.049015932796917391
leaf_weight=15.085742507129909 14.855253035202621
leaf_count=99 102
internal_value=0.00132102
internal_weight=29.941
internal_count=201
is_linear=0
shrinkage=0.15131


Tree=106
num_leaves=2
num_cat=0
split_feature=507
split_gain=2.70082
threshold=0.050588731715892586
decision_type=2
left_child=-1
right_child=-2
leaf_value=-0.043711958871045474 0.046223374655845369
leaf_weight=14.964932760223748 14.868867333978413
leaf_count=99 102
internal_value=0.00112815
internal_weight=29.8338
internal_count=201
is_linear=0
shrinkage=0.15131


Tree=107
num_leaves=2
num_cat=0
split_feature=232
split_gain=2.68092
threshold=-0.065157239337710463
decision_type=2
left_child=-1
right_child=-2
leaf_value=0.045947529591808554 -0.044014285074312258
leaf_weight=14.791430652141573 14.798751721158622
leaf_count=102 99
internal_value=0.000967604
internal_weight=29.5902
internal_count=201
is_linear=0
shrinkage=0.15131


Tree=108
num_leaves=2
num_cat=0
split_feature=507
split_gain=2.31943
threshold=0.11165041056918429
decision_type=2
left_child=-1
right_child=-2
leaf_value=-0.040566801277996757 0.043374553976193213
leaf_weight=14.913671191781761 14.491807390004395
leaf_count=101 100
internal_value=0.000826817
internal_weight=29.4055
internal_count=201
is_linear=0
shrinkage=0.15131


Tree=109
num_leaves=2
num_cat=0
split_feature=283
split_gain=3.88321
threshold=-0.034360986185565205
decision_type=2
left_child=-1
right_child=-2
leaf_value=0.046313916500957182 -0.060883002784660356
leaf_weight=14.321587713435294 15.981707833707331
leaf_count=87 114
internal_value=-0.0102737
internal_weight=30.3033
internal_count=201
is_linear=0
shrinkage=0.15131


Tree=110
num_leaves=2
num_cat=0
split_feature=785
split_gain=3.46428
threshold=-0.019586793834719035
decision_type=2
left_child=-1
right_child=-2
leaf_value=-0.058706183979450134 0.042236834359318416
leaf_weight=15.317699857056143 15.08424582146108
leaf_count=99 102
internal_value=-0.00871733
internal_weight=30.4019
internal_count=201
is_linear=0
shrinkage=0.15131


Tree=111
num_leaves=2
num_cat=0
split_feature=797
split_gain=3.12389
threshold=0.12943801983351741
decision_type=2
left_child=-1
right_child=-2
leaf_value=0.040092683538398413 -0.055949137398658963
leaf_weight=15.319467237219216 14.962166029959915
leaf_count=106 95
internal_value=-0.00746496
internal_weight=30.2816
internal_count=201
is_linear=0
shrinkage=0.15131


Tree=112
num_leaves=2
num_cat=0
split_feature=108
split_gain=3.11879
threshold=-0.080875445857131384
decision_type=2
left_child=-1
right_child=-2
leaf_value=-0.055937741211905 0.040224480433067741
leaf_weight=14.593782482668759 15.584978232160209
leaf_count=104 97
internal_value=-0.00639263
internal_weight=30.1788
internal_count=201
is_linear=0
shrinkage=0.15131


Tree=113
num_leaves=2
num_cat=0
split_feature=283
split_gain=2.88413
threshold=-0.034360986185565205
decision_type=2
left_child=-1
right_child=-2
leaf_value=0.043484297503826964 -0.04899273709382769
leaf_weight=14.242525126785042 16.000738479197025
leaf_count=87 114
internal_value=-0.00544307
internal_weight=30.2433
internal_count=201
is_linear=0
shrinkage=0.15131


Tree=114
num_leaves=2
num_cat=0
split_feature=310
split_gain=2.85312
threshold=-0.093026555523612872
decision_type=2
left_child=-1
right_child=-2
leaf_value=0.040811267267098175 -0.050900816003753263
leaf_weight=15.325897989794614 14.999416965991257
leaf_count=104 97
internal_value=-0.00461835
internal_weight=30.3253
internal_count=201
is_linear=0
shrinkage=0.15131


Tree=115
num_leaves=2
num_cat=0
split_feature=312
split_gain=2.5942
threshold=1.0000000180025095e-35
decision_type=2
left_child=-1
right_child=-2
leaf_value=0.040801816155228064 -0.046817744328709165
leaf_weight=14.789154473692181 15.426191072911022
leaf_count=99 102
internal_value=-0.00395698
internal_weight=30.2153
internal_count=201
is_linear=0
shrinkage=0.15131


Tree=116
num_leaves=2
num_cat=0
split_feature=283
split_gain=2.3602
threshold=1.0000000180025095e-35
decision_type=2
left_child=-1
right_child=-2
leaf_value=0.039902791875496751 -0.04372632906080106
leaf_weight=14.572559902444484 15.624302845448254
leaf_count=89 112
internal_value=-0.00337364
internal_weight=30.1969
internal_count=201
is_linear=0
shrinkage=0.15131


Tree=117
num_leaves=2
num_cat=0
split_feature=797
split_gain=2.38625
threshold=0.12943801983351741
decision_type=2
left_child=-1
right_child=-2
leaf_value=0.038760605010164761 -0.045192429918718142
leaf_weight=15.274058239534499 14.989501112140713
leaf_count=106 95
internal_value=-0.00286514
internal_weight=30.2636
internal_count=201
is_linear=0
shrinkage=0.15131


Tree=118
num_leaves=2
num_cat=0
split_feature=189
split_gain=3.0266
threshold=-0.062332425346790031
decision_type=2
left_child=-1
right_child=-2
leaf_value=0.040725286393852124 -0.053780558100864691
leaf_weight=15.508308507502081 14.800265074707566
leaf_count=99 106
internal_value=-0.0055165
internal_weight=30.3086
internal_count=205
is_linear=0
shrinkage=0.15131


Tree=119
num_leaves=2
num_cat=0
split_feature=547
split_gain=2.84552
threshold=0.15605887104454896
decision_type=2
left_child=-1
right_child=-2
leaf_value=-0.0485693992938502 0.043427665965365063
leaf_weight=15.767231665551664 14.345882957801221
leaf_count=109 96
internal_value=-0.00474684
internal_weight=30.1131
internal_count=205
is_linear=0
shrinkage=0.15131


Tree=120
num_leaves=2
num_cat=0
split_feature=193
split_gain=2.6318
threshold=0.087798407823418453
decision_type=2
left_child=-1
right_child=-2
leaf_value=-0.047442342762825905 0.041166148936181757
leaf_weight=15.286752596497537 14.679264478385447
leaf_count=97 108
internal_value=-0.00406374
internal_weight=29.966
internal_count=205
is_linear=0
shrinkage=0.15131


Tree=121
num_leaves=2
num_cat=0
split_feature=797
split_gain=2.91824
threshold=0.15598445585786438
decision_type=2
left_child=-1
right_child=-2
leaf_value=0.041705713185559802 -0.051804201836132907
leaf_weight=15.455579100176694 14.400015750899909
leaf_count=111 94
internal_value=-0.00347886
internal_weight=29.8556
internal_count=205
is_linear=0
shrinkage=0.15131


Tree=122
num_leaves=2
num_cat=0
split_feature=760
split_gain=2.37987
threshold=-0.20389723210630734
decision_type=2
left_child=-1
right_child=-2
leaf_value=0.039571308495966843 -0.045052233882146117
leaf_weight=14.766533865593376 14.924391577020286
leaf_count=94 111
internal_value=-0.00299658
internal_weight=29.6909
internal_count=205
is_linear=0
shrinkage=0.15131


Tree=123
num_leaves=2
num_cat=0
split_feature=445
split_gain=2.54311
threshold=1.0000000180025095e-35
decision_type=2
left_child=-1
right_child=-2
leaf_value=-0.045855564056800545 0.041763092504601189
leaf_weight=14.967119660228493 14.628302042372523
leaf_count=112 93
internal_value=-0.00256695
internal_weight=29.5954
internal_count=205
is_linear=0
shrinkage=0.15131


Tree=124
num_leaves=2
num_cat=0
split_feature=820
split_gain=2.20923
threshold=-0.05044873213462206
decision_type=2
left_child=-1
right_child=-2
leaf_value=-0.042289535145435528 0.039474376511511193
leaf_weight=15.046106800436975 14.482322303578256
leaf_count=100 105
internal_value=-0.00219589
internal_weight=29.5284
internal_count=205
is_linear=0
shrinkage=0.15131


Tree=125
num_leaves=2
num_cat=0
split_feature=554
split_gain=2.00042
threshold=-0.20188027504092729
decision_type=2
left_child=-1
right_child=-2
leaf_value=0.036198724810786571 -0.041758054380408256
leaf_weight=15.064984394237401 14.351000649854539
leaf_count=104 101
internal_value=-0.00188019
internal_weight=29.416
internal_count=205
is_linear=0
shrinkage=0.15131


Tree=126
num_leaves=2
num_cat=0
split_feature=189
split_gain=2.01674
threshold=-0.062332425346790031
decision_type=2
left_child=-1
right_child=-2
leaf_value=0.036617005351425688 -0.041908621829837303
leaf_weight=15.011992113664748 14.21526620723307
leaf_count=99 106
internal_value=-0.0016223
internal_weight=29.2273
internal_count=205
is_linear=0
shrinkage=0.15131


Tree=127
num_leaves=2
num_cat=0
split_feature=85
split_gain=2.38816
threshold=0.17654990454462036
decision_type=2
left_child=-1
right_child=-2
leaf_value=-0.046113769076355414 0.040129232195608912
leaf_weight=14.532598702237012 14.133469391614197
leaf_count=97 104
internal_value=-0.00362333
internal_weight=28.6661
internal_count=201
is_linear=0
shrinkage=0.15131


Tree=128
num_leaves=2
num_cat=0
split_feature=526
split_gain=2.10459
threshold=-0.16603821392840029
decision_type=2
left_child=-1
right_child=-2
leaf_value=0.037295371655092509 -0.043708029954958018
leaf_weight=14.370399719104173 14.259496431797741
leaf_count=106 95
internal_value=-0.00309264
internal_weight=28.6299
internal_count=201
is_linear=0
shrinkage=0.15131


Tree=129
num_leaves=2
num_cat=0
split_feature=467
split_gain=2.02569
threshold=0.019391088426601037
decision_type=2
left_child=-1
right_child=-2
leaf_value=-0.042302244411565708 0.037286495205778827
leaf_weight=14.310209648683669 14.231729138642548
leaf_count=99 102
internal_value=-0.00264818
internal_weight=28.5419
internal_count=201
is_linear=0
shrinkage=0.15131


Tree=130
num_leaves=2
num_cat=0
split_feature=27
split_gain=2.00745
threshold=-0.14374116844380028
decision_type=2
left_child=-1
right_child=-2
leaf_value=-0.042343116695241871 0.036904493365798777
leaf_weight=14.085812621749939 14.446609610691665
leaf_count=105 96
internal_value=-0.00225977
internal_weight=28.5324
internal_count=201
is_linear=0
shrinkage=0.15131


Tree=131
num_leaves=2
num_cat=0
split_feature=818
split_gain=1.89583
threshold=-0.1812136154790325
decision_type=2
left_child=-1
right_child=-2
leaf_value=0.036818747294414506 -0.040241493101879182
leaf_weight=14.17139720823616 14.321126706898211
leaf_count=100 101
internal_value=-0.00193329
internal_weight=28.4925
internal_count=201
is_linear=0
shrinkage=0.15131


Tree=132
num_leaves=2
num_cat=0
split_feature=429
split_gain=1.88247
threshold=-0.009924677976947913
decision_type=2
left_child=-1
right_child=-2
leaf_value=-0.041131330719019324 0.035711167385104159
leaf_weight=13.825618123635651 14.647730180993674
leaf_count=95 106
internal_value=-0.00165008
internal_weight=28.4733
internal_count=201
is_linear=0
shrinkage=0.15131


Tree=133
num_leaves=2
num_cat=0
split_feature=707
split_gain=2.02191
threshold=-0.0023292358811730003
decision_type=2
left_child=-1
right_child=-2
leaf_value=0.037262453040554894 -0.042501943958559864
leaf_weight=14.637754322960975 13.746803891845046
leaf_count=93 108
internal_value=-0.00141807
internal_weight=28.3846
internal_count=201
is_linear=0
shrinkage=0.15131


Tree=134
num_leaves=2
num_cat=0
split_feature=823
split_gain=2.10157
threshold=0.092782131575288904
decision_type=2
left_child=-1
right_child=-2
leaf_value=-0.041911410518922242 0.039488433773240864
leaf_weight=14.147721433080735 14.152755009941755
leaf_count=96 105
internal_value=-0.00122004
internal_weight=28.3005
internal_count=201
is_linear=0
shrinkage=0.15131


Tree=135
num_leaves=2
num_cat=0
split_feature=731
split_gain=1.9877
threshold=0.11557297433700403
decision_type=2
left_child=-1
right_child=-2
leaf_value=0.039060261585774157 -0.040254029459901308
leaf_weight=13.937885715626182 14.255992816761134
leaf_count=90 111
internal_value=-0.00104621
internal_weight=28.1939
internal_count=201
is_linear=0
shrinkage=0.15131


Tree=136
num_leaves=2
num_cat=0
split_feature=108
split_gain=3.36755
threshold=1.0000000180025095e-35
decision_type=2
left_child=-1
right_child=-2
leaf_value=-0.035270871847506165 0.065036817075150258
leaf_weight=15.190088108181955 14.750792832113801
leaf_count=112 94
internal_value=0.0143393
internal_weight=29.9409
internal_count=206
is_linear=0
shrinkage=0.15131


Tree=137
num_leaves=2
num_cat=0
split_feature=813
split_gain=2.51086
threshold=-0.041929313126817754
decision_type=2
left_child=-1
right_child=-2
leaf_value=0.05647956404754309 -0.030089653796096232
leaf_weight=14.590154961682858 15.396496921777723
leaf_count=100 106
internal_value=0.0122075
internal_weight=29.9867
internal_count=206
is_linear=0
shrinkage=0.15131


Tree=138
num_leaves=2
num_cat=0
split_feature=583
split_gain=2.49324
threshold=0.11996086664819053
decision_type=2
left_child=-1
right_child=-2
leaf_value=0.053886113228429587 -0.032487730608929781
leaf_weight=14.809837598353626 15.072894036769865
leaf_count=105 101
internal_value=0.0104556
internal_weight=29.8827
internal_count=206
is_linear=0
shrinkage=0.15131


Tree=139
num_leaves=2
num_cat=0
split_feature=363
split_gain=2.37266
threshold=0.054155878362276852
decision_type=2
left_child=-1
right_child=-2
leaf_value=-0.033243693130887257 0.051023412656401146
leaf_weight=14.962859867140653 14.907079769298432
leaf_count=93 113
internal_value=0.00892177
internal_weight=29.8699
internal_count=206
is_linear=0
shrinkage=0.15131


Tree=140
num_leaves=2
num_cat=0
split_feature=108
split_gain=2.36449
threshold=1.0000000180025095e-35
decision_type=2
left_child=-1
right_child=-2
leaf_value=-0.034081558103944247 0.050307108055888762
leaf_weight=15.033569652587177 14.643676381558178
leaf_count=112 94
internal_value=0.00766599
internal_weight=29.6772
internal_count=206
is_linear=0
shrinkage=0.15131


Tree=141
num_leaves=2
num_cat=0
split_feature=698
split_gain=2.04414
threshold=0.19882673052136582
decision_type=2
left_child=-1
right_child=-2
leaf_value=-0.032600748747251461 0.045813969750256069
leaf_weight=14.914610410109164 14.794441677629946
leaf_count=94 112
internal_value=0.00653188
internal_weight=29.7091
internal_count=206
is_linear=0
shrinkage=0.15131


Tree=142
num_leaves=2
num_cat=0
split_feature=40
split_gain=2.08865
threshold=0.25314636563460458
decision_type=2
left_child=-1
right_child=-2
leaf_value=-0.033819837075419724 0.045501896446204407
leaf_weight=14.957371037453415 14.70597757026553
leaf_count=106 100
internal_value=0.00558158
internal_weight=29.6633
internal_count=206
is_linear=0
shrinkage=0.15131


Tree=143
num_leaves=2
num_cat=0
split_feature=719
split_gain=1.95995
threshold=0.02700452608345107
decision_type=2
left_child=-1
right_child=-2
leaf_value=0.041144057962205792 -0.036012041952153281
leaf_weight=15.602502662688496 13.903220094740389
leaf_count=119 87
internal_value=0.00479201
internal_weight=29.5057
internal_count=206
is_linear=0
shrinkage=0.15131


Tree=144
num_leaves=2
num_cat=0
split_feature=518
split_gain=2.04844
threshold=-0.034115198224435463
decision_type=2
left_child=-1
right_child=-2
leaf_value=-0.038088385561798138 0.040970372189281179
leaf_weight=13.708143508061768 15.693950410932301
leaf_count=100 106
internal_value=0.00409533
internal_weight=29.4021
internal_count=206
is_linear=0
shrinkage=0.15131


Tree=145
num_leaves=2
num_cat=0
split_feature=695
split_gain=1.91499
threshold=-0.016385594637555064
decision_type=2
left_child=-1
right_child=-2
leaf_value=-0.052752523701435676 0.02574422831358485
leaf_weight=14.115887930616738 13.655873468145726
leaf_count=98 103
internal_value=-0.0143246
internal_weight=27.7718
internal_count=201
is_linear=0
shrinkage=0.15131


Tree=146
num_leaves=2
num_cat=0
split_feature=700
split_gain=2.88524
threshold=-0.13794185595860012
decision_type=2
left_child=-1
right_child=-2
leaf_value=0.03807625095642244 -0.058341970864569256
leaf_weight=13.302101045846941 14.443337459117172
leaf_count=88 113
internal_value=-0.0122239
internal_weight=27.7454
internal_count=201
is_linear=0
shrinkage=0.15131


Tree=147
num_leaves=2
num_cat=0
split_feature=33
split_gain=1.78754
threshold=0.24693405701831819
decision_type=2
left_child=-1
right_child=-2
leaf_value=-0.048405299049969708 0.027570574012969619
leaf_weight=13.78460921905935 13.85674339905381
leaf_count=104 97
internal_value=-0.0104582
internal_weight=27.6414
internal_count=201
is_linear=0
shrinkage=0.15131


Tree=148
num_leaves=2
num_cat=0
split_feature=658
split_gain=2.05303
threshold=0.11671597654726797
decision_type=2
left_child=-1
right_child=-2
leaf_value=-0.050743608673818691 0.030879333002601567
leaf_weight=13.380443518981339 14.131663173437117
leaf_count=93 108
internal_value=-0.00896553
internal_weight=27.5121
internal_count=201
is_linear=0
shrinkage=0.15131


Tree=149
num_leaves=2
num_cat=0
split_feature=700
split_gain=2.82991
threshold=-0.11238302933005904
decision_type=2
left_child=-1
right_child=-2
leaf_value=0.040670233669130855 -0.055272966288799796
leaf_weight=13.628009602427484 13.790065002627669
leaf_count=91 110
internal_value=-0.00767906
internal_weight=27.4181
internal_count=201
is_linear=0
shrinkage=0.15131


Tree=150
num_leaves=2
num_cat=0
split_feature=273
split_gain=2.0479
threshold=0.17802314250448434
decision_type=2
left_child=-1
right_child=-2
leaf_value=-0.048471997667970286 0.033340790702359721
leaf_weight=13.282325062900783 14.019914748147128
leaf_count=93 108
internal_value=-0.00657733
internal_weight=27.3022
internal_count=201
is_linear=0
shrinkage=0.15131


Tree=151
num_leaves=2
num_cat=0
split_feature=85
split_gain=1.82668
threshold=0.19943348222569643
decision_type=2
left_child=-1
right_child=-2
leaf_value=-0.043990651388831389 0.033369278268065121
leaf_weight=13.697103884071113 13.518419259227811
leaf_count=95 106
internal_value=-0.00563297
internal_weight=27.2155
internal_count=201
is_linear=0
shrinkage=0.15131


Tree=152
num_leaves=2
num_cat=0
split_feature=516
split_gain=1.80904
threshold=-0.0091472066943610198
decision_type=2
left_child=-1
right_child=-2
leaf_value=-0.042500444939399293 0.034574203636252951
leaf_weight=13.864016357809307 13.295203191228209
leaf_count=101 100
internal_value=-0.00481294
internal_weight=27.1592
